{"learner":{"attributes":{"scikit_learn":"{\"_estimator_type\": \"classifier\"}"},"feature_names":["SeniorCitizen","tenure","MonthlyCharges","TotalCharges","avg_monthly_spend","services_count","gender_Male","Partner_Yes","Dependents_Yes","PhoneService_Yes","MultipleLines_No phone service","MultipleLines_Yes","InternetService_Fiber optic","InternetService_No","OnlineSecurity_No internet service","OnlineSecurity_Yes","OnlineBackup_No internet service","OnlineBackup_Yes","DeviceProtection_No internet service","DeviceProtection_Yes","TechSupport_No internet service","TechSupport_Yes","StreamingTV_No internet service","StreamingTV_Yes","StreamingMovies_No internet service","StreamingMovies_Yes","Contract_One year","Contract_Two year","PaperlessBilling_Yes","PaymentMethod_Credit card (automatic)","PaymentMethod_Electronic check","PaymentMethod_Mailed check","tenure_group_13-24","tenure_group_25+","tenure_group_nan"],"feature_types":["int","int","float","float","float","int","i","i","i","i","i","i","i","i","i","i","i","i","i","i","i","i","i","i","i","i","i","i","i","i","i","i","i","i","i"],"gradient_booster":{"model":{"gbtree_model_param":{"num_parallel_tree":"1","num_trees":"400"},"iteration_indptr":[0,1,2,3,4,5,6,7,8,9,10,11,12,13,14,15,16,17,18,19,20,21,22,23,24,25,26,27,28,29,30,31,32,33,34,35,36,37,38,39,40,41,42,43,44,45,46,47,48,49,50,51,52,53,54,55,56,57,58,59,60,61,62,63,64,65,66,67,68,69,70,71,72,73,74,75,76,77,78,79,80,81,82,83,84,85,86,87,88,89,90,91,92,93,94,95,96,97,98,99,100,101,102,103,104,105,106,107,108,109,110,111,112,113,114,115,116,117,118,119,120,121,122,123,124,125,126,127,128,129,130,131,132,133,134,135,136,137,138,139,140,141,142,143,144,145,146,147,148,149,150,151,152,153,154,155,156,157,158,159,160,161,162,163,164,165,166,167,168,169,170,171,172,173,174,175,176,177,178,179,180,181,182,183,184,185,186,187,188,189,190,191,192,193,194,195,196,197,198,199,200,201,202,203,204,205,206,207,208,209,210,211,212,213,214,215,216,217,218,219,220,221,222,223,224,225,226,227,228,229,230,231,232,233,234,235,236,237,238,239,240,241,242,243,244,245,246,247,248,249,250,251,252,253,254,255,256,257,258,259,260,261,262,263,264,265,266,267,268,269,270,271,272,273,274,275,276,277,278,279,280,281,282,283,284,285,286,287,288,289,290,291,292,293,294,295,296,297,298,299,300,301,302,303,304,305,306,307,308,309,310,311,312,313,314,315,316,317,318,319,320,321,322,323,324,325,326,327,328,329,330,331,332,333,334,335,336,337,338,339,340,341,342,343,344,345,346,347,348,349,350,351,352,353,354,355,356,357,358,359,360,361,362,363,364,365,366,367,368,369,370,371,372,373,374,375,376,377,378,379,380,381,382,383,384,385,386,387,388,389,390,391,392,393,394,395,396,397,398,399,400],"tree_info":[0,0,0,0,0,0,0,0,0,0,0,0,0,0,0,0,0,0,0,0,0,0,0,0,0,0,0,0,0,0,0,0,0,0,0,0,0,0,0,0,0,0,0,0,0,0,0,0,0,0,0,0,0,0,0,0,0,0,0,0,0,0,0,0,0,0,0,0,0,0,0,0,0,0,0,0,0,0,0,0,0,0,0,0,0,0,0,0,0,0,0,0,0,0,0,0,0,0,0,0,0,0,0,0,0,0,0,0,0,0,0,0,0,0,0,0,0,0,0,0,0,0,0,0,0,0,0,0,0,0,0,0,0,0,0,0,0,0,0,0,0,0,0,0,0,0,0,0,0,0,0,0,0,0,0,0,0,0,0,0,0,0,0,0,0,0,0,0,0,0,0,0,0,0,0,0,0,0,0,0,0,0,0,0,0,0,0,0,0,0,0,0,0,0,0,0,0,0,0,0,0,0,0,0,0,0,0,0,0,0,0,0,0,0,0,0,0,0,0,0,0,0,0,0,0,0,0,0,0,0,0,0,0,0,0,0,0,0,0,0,0,0,0,0,0,0,0,0,0,0,0,0,0,0,0,0,0,0,0,0,0,0,0,0,0,0,0,0,0,0,0,0,0,0,0,0,0,0,0,0,0,0,0,0,0,0,0,0,0,0,0,0,0,0,0,0,0,0,0,0,0,0,0,0,0,0,0,0,0,0,0,0,0,0,0,0,0,0,0,0,0,0,0,0,0,0,0,0,0,0,0,0,0,0,0,0,0,0,0,0,0,0,0,0,0,0,0,0,0,0,0,0,0,0,0,0,0,0,0,0,0,0,0,0,0,0,0,0,0,0,0,0,0,0,0,0,0,0,0,0,0,0,0,0,0,0,0,0,0,0,0,0,0,0,0,0,0,0,0,0],"trees":[{"base_weights":[-6.954046E-2,1.0302713E0,-5.068606E-1,2.0393533E-1,2.1617506E0,-1.0430915E0,1.6810587E-1,6.853858E-3,-5.3312164E-3,1.4289312E-2,2.3428695E-2,-8.378458E-3,-1.3012863E-2,7.073075E-3,-4.675516E-3],"categories":[],"categories_nodes":[],"categories_segments":[],"categories_sizes":[],"default_left":[0,0,0,0,0,0,0,0,0,0,0,0,0,0,0],"id":0,"left_children":[1,3,5,7,9,11,13,-1,-1,-1,-1,-1,-1,-1,-1],"loss_changes":[4.1003644E2,2.2635416E2,2.2090971E2,5.0503174E1,1.0226959E1,1.6927551E1,9.316963E1,0E0,0E0,0E0,0E0,0E0,0E0,0E0,0E0],"parents":[2147483647,0,0,1,1,2,2,3,3,4,4,5,5,6,6],"right_children":[2,4,6,8,10,12,14,-1,-1,-1,-1,-1,-1,-1,-1],"split_conditions":[1.1E1,1E0,1E0,1E0,1E0,1E0,4.54905E3,6.853858E-3,-5.3312164E-3,1.4289312E-2,2.3428695E-2,-8.378458E-3,-1.3012863E-2,7.073075E-3,-4.675516E-3],"split_indices":[1,12,12,13,28,27,3,0,0,0,0,0,0,0,0],"split_type":[0,0,0,0,0,0,0,0,0,0,0,0,0,0,0],"sum_hessian":[8.504342E2,2.4156618E2,6.0886804E2,1.4029031E2,1.01275856E2,3.3900122E2,2.6986682E2,8.490192E1,5.5388393E1,2.1831923E1,7.944394E1,1.9123146E2,1.4776976E2,1.4595044E2,1.23916374E2],"tree_param":{"num_deleted":"0","num_feature":"35","num_nodes":"15","size_leaf_vector":"1"}},{"base_weights":[-5.600915E-2,1.0234529E0,-4.836144E-1,2.1329938E-1,2.1307714E0,-1.0236349E0,1.714941E-1,7.163298E-3,-5.382562E-3,2.2457866E-2,8.466354E-3,-8.161118E-3,-1.287239E-2,7.860831E-3,-3.9930996E-3],"categories":[],"categories_nodes":[],"categories_segments":[],"categories_sizes":[],"default_left":[0,0,0,0,0,0,0,0,0,0,0,0,0,0,0],"id":1,"left_children":[1,3,5,7,9,11,13,-1,-1,-1,-1,-1,-1,-1,-1],"loss_changes":[3.9235272E2,2.1592023E2,2.1553358E2,5.346383E1,1.3133423E1,1.7211151E1,9.710938E1,0E0,0E0,0E0,0E0,0E0,0E0,0E0,0E0],"parents":[2147483647,0,0,1,1,2,2,3,3,4,4,5,5,6,6],"right_children":[2,4,6,8,10,12,14,-1,-1,-1,-1,-1,-1,-1,-1],"split_conditions":[1.1E1,1E0,1E0,1E0,1E0,1E0,4.4E1,7.163298E-3,-5.382562E-3,2.2457866E-2,8.466354E-3,-8.161118E-3,-1.287239E-2,7.860831E-3,-3.9930996E-3],"split_indices":[1,12,12,13,15,27,1,0,0,0,0,0,0,0,0],"split_type":[0,0,0,0,0,0,0,0,0,0,0,0,0,0,0],"sum_hessian":[8.4794214E2,2.401941E2,6.0774805E2,1.3939812E2,1.0079598E2,3.3282797E2,2.7492007E2,8.353406E1,5.586406E1,9.182287E1,8.973115E0,1.8851505E2,1.4431294E2,1.3220105E2,1.4271901E2],"tree_param":{"num_deleted":"0","num_feature":"35","num_nodes":"15","size_leaf_vector":"1"}},{"base_weights":[-9.890027E-2,1.0242032E0,-5.2929604E-1,2.2407551E-1,2.0492384E0,-1.0198185E0,8.724393E-2,7.938242E-3,-6.153452E-3,2.1536274E-2,7.691831E-3,-8.069314E-3,-1.2863641E-2,6.8769073E-3,-4.5960424E-3],"categories":[],"categories_nodes":[],"categories_segments":[],"categories_sizes":[],"default_left":[0,0,0,0,0,0,0,0,0,0,0,0,0,0,0],"id":2,"left_children":[1,3,5,7,9,11,13,-1,-1,-1,-1,-1,-1,-1,-1],"loss_changes":[4.1413E2,1.9423766E2,1.8736043E2,6.4787315E1,1.2233063E1,1.8535126E1,9.0709145E1,0E0,0E0,0E0,0E0,0E0,0E0,0E0,0E0],"parents":[2147483647,0,0,1,1,2,2,3,3,4,4,5,5,6,6],"right_children":[2,4,6,8,10,12,14,-1,-1,-1,-1,-1,-1,-1,-1],"split_conditions":[1.1E1,1E0,1E0,1E0,1E0,1E0,4.4E1,7.938242E-3,-6.153452E-3,2.1536274E-2,7.691831E-3,-8.069314E-3,-1.2863641E-2,6.8769073E-3,-4.5960424E-3],"split_indices":[1,12,12,13,15,27,1,0,0,0,0,0,0,0,0],"split_type":[0,0,0,0,0,0,0,0,0,0,0,0,0,0,0],"sum_hessian":[8.546183E2,2.3638911E2,6.182292E2,1.334436E2,1.0294552E2,3.4393698E2,2.7429218E2,7.952268E1,5.3920918E1,9.455231E1,8.393208E0,1.9345442E2,1.5048257E2,1.3061621E2,1.4367595E2],"tree_param":{"num_deleted":"0","num_feature":"35","num_nodes":"15","size_leaf_vector":"1"}},{"base_weights":[-6.985525E-2,9.9028283E-1,-5.156389E-1,1.9246824E-1,2.0174947E0,-1.0035669E0,9.134767E-2,7.6025003E-3,-2.5802501E-3,2.6116075E-2,1.7650453E-2,-7.8343265E-3,-1.2848352E-2,7.251218E-3,-4.69879E-3],"categories":[],"categories_nodes":[],"categories_segments":[],"categories_sizes":[],"default_left":[0,0,0,0,0,0,0,0,0,0,0,0,0,0,0],"id":3,"left_children":[1,3,5,7,9,11,13,-1,-1,-1,-1,-1,-1,-1,-1],"loss_changes":[4.070952E2,2.086046E2,1.7966028E2,3.719279E1,1.2094879E1,1.981009E1,9.677129E1,0E0,0E0,0E0,0E0,0E0,0E0,0E0,0E0],"parents":[2147483647,0,0,1,1,2,2,3,3,4,4,5,5,6,6],"right_children":[2,4,6,8,10,12,14,-1,-1,-1,-1,-1,-1,-1,-1],"split_conditions":[1.2E1,1E0,1E0,3E0,2E0,1E0,4.4E1,7.6025003E-3,-2.5802501E-3,2.6116075E-2,1.7650453E-2,-7.8343265E-3,-1.2848352E-2,7.251218E-3,-4.69879E-3],"split_indices":[1,12,12,1,1,27,1,0,0,0,0,0,0,0,0],"split_type":[0,0,0,0,0,0,0,0,0,0,0,0,0,0,0],"sum_hessian":[8.5932855E2,2.5401726E2,6.0531134E2,1.4364131E2,1.1037594E2,3.3520358E2,2.7010776E2,6.3243904E1,8.0397415E1,3.0127916E1,8.0248024E1,1.9016034E2,1.4504323E2,1.2671773E2,1.4339003E2],"tree_param":{"num_deleted":"0","num_feature":"35","num_nodes":"15","size_leaf_vector":"1"}},{"base_weights":[-8.941818E-2,7.865324E-1,-5.89496E-1,-1.7225018E-2,1.8458115E0,-1.0456897E0,-6.08559E-2,6.2068678E-3,-5.108139E-3,1.9698044E-2,6.597586E-3,-8.317043E-3,-1.2754739E-2,3.6106082E-3,-6.753269E-3],"categories":[],"categories_nodes":[],"categories_segments":[],"categories_sizes":[],"default_left":[0,0,0,0,0,0,0,0,0,0,0,0,0,0,0],"id":4,"left_children":[1,3,5,7,9,11,13,-1,-1,-1,-1,-1,-1,-1,-1],"loss_changes":[3.748624E2,2.6485822E2,1.3128778E2,5.631436E1,1.8436493E1,1.3311768E1,6.592845E1,0E0,0E0,0E0,0E0,0E0,0E0,0E0,0E0],"parents":[2147483647,0,0,1,1,2,2,3,3,4,4,5,5,6,6],"right_children":[2,4,6,8,10,12,14,-1,-1,-1,-1,-1,-1,-1,-1],"split_conditions":[1.6E1,1E0,1E0,4E0,1E0,1E0,5.5E1,6.2068678E-3,-5.108139E-3,1.9698044E-2,6.597586E-3,-8.317043E-3,-1.2754739E-2,3.6106082E-3,-6.753269E-3],"split_indices":[1,12,12,1,15,27,1,0,0,0,0,0,0,0,0],"split_type":[0,0,0,0,0,0,0,0,0,0,0,0,0,0,0],"sum_hessian":[8.537068E2,3.1004694E2,5.4365985E2,1.7684479E2,1.3320215E2,2.913013E2,2.5235852E2,7.703179E1,9.9813E1,1.199966E2,1.3205548E1,1.5322803E2,1.3807327E2,1.498671E2,1.0249143E2],"tree_param":{"num_deleted":"0","num_feature":"35","num_nodes":"15","size_leaf_vector":"1"}},{"base_weights":[-7.3424414E-2,-6.749355E-1,6.8182194E-1,6.029646E-1,-9.261743E-1,1.6970767E0,-1.3759221E-1,8.2614203E-4,1.2132393E-2,-5.3872135E-3,-1.12778945E-2,1.9726727E-2,1.029669E-2,-5.1396643E-3,4.3498594E-3],"categories":[],"categories_nodes":[],"categories_segments":[],"categories_sizes":[],"default_left":[0,0,0,0,0,0,0,0,0,0,0,0,0,0,0],"id":5,"left_children":[1,3,5,7,9,11,13,-1,-1,-1,-1,-1,-1,-1,-1],"loss_changes":[3.876236E2,1.5303098E2,3.149745E2,2.4870274E1,3.0426025E1,2.9062897E1,4.5540604E1,0E0,0E0,0E0,0E0,0E0,0E0,0E0,0E0],"parents":[2147483647,0,0,1,1,2,2,3,3,4,4,5,5,6,6],"right_children":[2,4,6,8,10,12,14,-1,-1,-1,-1,-1,-1,-1,-1],"split_conditions":[1E0,4E0,2.6E1,1E0,2.3E1,1.4E1,1E0,8.2614203E-4,1.2132393E-2,-5.3872135E-3,-1.12778945E-2,1.9726727E-2,1.029669E-2,-5.1396643E-3,4.3498594E-3],"split_indices":[12,1,1,28,1,1,30,0,0,0,0,0,0,0,0],"split_type":[0,0,0,0,0,0,0,0,0,0,0,0,0,0,0],"sum_hessian":[8.512402E2,4.7390662E2,3.7733356E2,7.7633224E1,3.962734E2,1.6804929E2,2.0928427E2,4.251673E1,3.5116493E1,1.3688582E2,2.5938757E2,1.1755213E2,5.0497154E1,1.2633955E2,8.2944725E1],"tree_param":{"num_deleted":"0","num_feature":"35","num_nodes":"15","size_leaf_vector":"1"}},{"base_weights":[-2.0902174E-2,-6.427237E-1,7.339251E-1,4.917743E-1,-9.370197E-1,1.6598146E0,-9.125492E-2,9.803679E-3,-2.2602677E-3,-7.2401725E-3,-1.2641342E-2,2.0848267E-2,1.1618621E-2,3.833361E-3,-6.039279E-3],"categories":[],"categories_nodes":[],"categories_segments":[],"categories_sizes":[],"default_left":[0,0,0,0,0,0,0,0,0,0,0,0,0,0,0],"id":6,"left_children":[1,3,5,7,9,11,13,-1,-1,-1,-1,-1,-1,-1,-1],"loss_changes":[3.9836572E2,1.5582982E2,2.9306116E2,3.4067352E1,2.4853851E1,3.582367E1,4.978424E1,0E0,0E0,0E0,0E0,0E0,0E0,0E0,0E0],"parents":[2147483647,0,0,1,1,2,2,3,3,4,4,5,5,6,6],"right_children":[2,4,6,8,10,12,14,-1,-1,-1,-1,-1,-1,-1,-1],"split_conditions":[1E0,6E0,2.7E1,1E0,1E0,9E0,5.5E1,9.803679E-3,-2.2602677E-3,-7.2401725E-3,-1.2641342E-2,2.0848267E-2,1.1618621E-2,3.833361E-3,-6.039279E-3],"split_indices":[12,1,1,13,27,1,1,0,0,0,0,0,0,0,0],"split_type":[0,0,0,0,0,0,0,0,0,0,0,0,0,0,0],"sum_hessian":[8.467232E2,4.6434637E2,3.8237683E2,9.550558E1,3.688408E2,1.7971593E2,2.026609E2,5.6607876E1,3.88977E1,2.2532957E2,1.4351122E2,9.523995E1,8.447598E1,1.053701E2,9.72908E1],"tree_param":{"num_deleted":"0","num_feature":"35","num_nodes":"15","size_leaf_vector":"1"}},{"base_weights":[-7.387004E-2,9.649599E-1,-4.9859658E-1,1.7336752E-1,1.9406618E0,-1.0153196E0,1.18239425E-1,6.4672763E-3,-5.291688E-3,1.6537236E-2,2.3488047E-2,-8.191945E-3,-1.271737E-2,6.3172057E-3,-5.0367466E-3],"categories":[],"categories_nodes":[],"categories_segments":[],"categories_sizes":[],"default_left":[0,0,0,0,0,0,0,0,0,0,0,0,0,0,0],"id":7,"left_children":[1,3,5,7,9,11,13,-1,-1,-1,-1,-1,-1,-1,-1],"loss_changes":[3.8011655E2,1.9278195E2,1.9498955E2,4.6613842E1,9.220154E0,1.5694489E1,8.960318E1,0E0,0E0,0E0,0E0,0E0,0E0,0E0,0E0],"parents":[2147483647,0,0,1,1,2,2,3,3,4,4,5,5,6,6],"right_children":[2,4,6,8,10,12,14,-1,-1,-1,-1,-1,-1,-1,-1],"split_conditions":[1.1E1,1E0,1E0,1E0,1E0,1E0,4.9E1,6.4672763E-3,-5.291688E-3,1.6537236E-2,2.3488047E-2,-8.191945E-3,-1.271737E-2,6.3172057E-3,-5.0367466E-3],"split_indices":[1,12,12,13,11,27,1,0,0,0,0,0,0,0,0],"split_type":[0,0,0,0,0,0,0,0,0,0,0,0,0,0,0],"sum_hessian":[8.594246E2,2.4903734E2,6.1038727E2,1.381407E2,1.1089664E2,3.3179602E2,2.7859128E2,8.257927E1,5.5561428E1,6.808349E1,4.281315E1,1.9037744E2,1.4141858E2,1.5259006E2,1.2600121E2],"tree_param":{"num_deleted":"0","num_feature":"35","num_nodes":"15","size_leaf_vector":"1"}},{"base_weights":[-5.9329744E-2,9.081235E-1,-5.219431E-1,1.3442154E-1,1.9017361E0,-1.0354841E0,8.9717105E-2,5.861992E-3,-5.300486E-3,2.4369644E-2,1.6781555E-2,-8.430776E-3,-1.272232E-2,5.1721977E-3,-6.1601917E-3],"categories":[],"categories_nodes":[],"categories_segments":[],"categories_sizes":[],"default_left":[0,0,0,0,0,0,0,0,0,0,0,0,0,0,0],"id":8,"left_children":[1,3,5,7,9,11,13,-1,-1,-1,-1,-1,-1,-1,-1],"loss_changes":[3.8271402E2,2.1241824E2,1.8178E2,4.7324055E1,1.0394196E1,1.3253723E1,8.0242455E1,0E0,0E0,0E0,0E0,0E0,0E0,0E0,0E0],"parents":[2147483647,0,0,1,1,2,2,3,3,4,4,5,5,6,6],"right_children":[2,4,6,8,10,12,14,-1,-1,-1,-1,-1,-1,-1,-1],"split_conditions":[1.3E1,1E0,1E0,1E0,1.1705E2,1E0,5.5E1,5.861992E-3,-5.300486E-3,2.4369644E-2,1.6781555E-2,-8.430776E-3,-1.272232E-2,5.1721977E-3,-6.1601917E-3],"split_indices":[1,12,12,13,3,27,1,0,0,0,0,0,0,0,0],"split_type":[0,0,0,0,0,0,0,0,0,0,0,0,0,0,0],"sum_hessian":[8.530593E2,2.756453E2,5.77414E2,1.5561049E2,1.20034805E2,3.1350604E2,2.63908E2,9.270056E1,6.2909935E1,3.2450935E1,8.758387E1,1.7546541E2,1.3804063E2,1.6451778E2,9.939021E1],"tree_param":{"num_deleted":"0","num_feature":"35","num_nodes":"15","size_leaf_vector":"1"}},{"base_weights":[-6.482123E-2,9.925048E-1,-5.013903E-1,2.4994649E-1,1.9351445E0,-9.9700135E-1,1.06363416E-1,7.1851024E-3,-5.2038287E-3,2.5689675E-2,1.6566306E-2,-7.838262E-3,-1.2769078E-2,5.7528326E-3,-6.7260414E-3],"categories":[],"categories_nodes":[],"categories_segments":[],"categories_sizes":[],"default_left":[0,0,0,0,0,0,0,0,0,0,0,0,0,0,0],"id":9,"left_children":[1,3,5,7,9,11,13,-1,-1,-1,-1,-1,-1,-1,-1],"loss_changes":[3.9491187E2,1.7453453E2,1.8246413E2,5.1271587E1,1.5167175E1,1.8903076E1,1.0005063E2,0E0,0E0,0E0,0E0,0E0,0E0,0E0,0E0],"parents":[2147483647,0,0,1,1,2,2,3,3,4,4,5,5,6,6],"right_children":[2,4,6,8,10,12,14,-1,-1,-1,-1,-1,-1,-1,-1],"split_conditions":[1.1E1,1E0,1E0,1E0,2E0,1E0,5.3E1,7.1851024E-3,-5.2038287E-3,2.5689675E-2,1.6566306E-2,-7.838262E-3,-1.2769078E-2,5.7528326E-3,-6.7260414E-3],"split_indices":[1,12,12,13,1,27,1,0,0,0,0,0,0,0,0],"split_type":[0,0,0,0,0,0,0,0,0,0,0,0,0,0,0],"sum_hessian":[8.53458E2,2.4903851E2,6.044195E2,1.4001096E2,1.0902756E2,3.3257263E2,2.7184686E2,8.7099014E1,5.2911945E1,3.0772879E1,7.825468E1,1.90948E2,1.4162462E2,1.6985791E2,1.0198893E2],"tree_param":{"num_deleted":"0","num_feature":"35","num_nodes":"15","size_leaf_vector":"1"}},{"base_weights":[-8.039538E-2,6.490463E-1,-6.472692E-1,-7.1522936E-2,1.553568E0,-1.0944804E0,-1.3396783E-1,4.8679453E-3,-5.666901E-3,1.9190133E-2,1.0345348E-2,-9.13377E-3,-1.2579754E-2,9.937526E-4,-9.744851E-3],"categories":[],"categories_nodes":[],"categories_segments":[],"categories_sizes":[],"default_left":[0,0,0,0,0,0,0,0,0,0,0,0,0,0,0],"id":10,"left_children":[1,3,5,7,9,11,13,-1,-1,-1,-1,-1,-1,-1,-1],"loss_changes":[3.490155E2,2.4071515E2,1.0886374E2,5.734463E1,2.9070343E1,6.361084E0,4.368478E1,0E0,0E0,0E0,0E0,0E0,0E0,0E0,0E0],"parents":[2147483647,0,0,1,1,2,2,3,3,4,4,5,5,6,6],"right_children":[2,4,6,8,10,12,14,-1,-1,-1,-1,-1,-1,-1,-1],"split_conditions":[2.3E1,1E0,1E0,6E0,9E0,1E0,1E0,4.8679453E-3,-5.666901E-3,1.9190133E-2,1.0345348E-2,-9.13377E-3,-1.2579754E-2,9.937526E-4,-9.744851E-3],"split_indices":[1,12,12,1,1,27,27,0,0,0,0,0,0,0,0],"split_type":[0,0,0,0,0,0,0,0,0,0,0,0,0,0,0],"sum_hessian":[8.4203314E2,3.681545E2,4.7387866E2,2.054265E2,1.62728E2,2.5263737E2,2.2124129E2,9.656413E1,1.08862366E2,9.390988E1,6.881812E1,1.2298902E2,1.2964836E2,1.738571E2,4.738417E1],"tree_param":{"num_deleted":"0","num_feature":"35","num_nodes":"15","size_leaf_vector":"1"}},{"base_weights":[-5.4410875E-2,9.053917E-1,-5.2568036E-1,1.5185694E-1,1.8206457E0,-1.0125853E0,3.2936826E-2,5.6722523E-3,-4.9699927E-3,2.3227802E-2,1.6117541E-2,-8.190533E-3,-1.2372197E-2,2.6778667E-3,-9.693955E-3],"categories":[],"categories_nodes":[],"categories_segments":[],"categories_sizes":[],"default_left":[0,0,0,0,0,0,0,0,0,0,0,0,0,0,0],"id":11,"left_children":[1,3,5,7,9,11,13,-1,-1,-1,-1,-1,-1,-1,-1],"loss_changes":[3.829291E2,1.920116E2,1.5444862E2,4.1788498E1,9.452087E0,1.2174896E1,6.2724014E1,0E0,0E0,0E0,0E0,0E0,0E0,0E0,0E0],"parents":[2147483647,0,0,1,1,2,2,3,3,4,4,5,5,6,6],"right_children":[2,4,6,8,10,12,14,-1,-1,-1,-1,-1,-1,-1,-1],"split_conditions":[1.3E1,1E0,1E0,1E0,1.1705E2,1E0,1E0,5.6722523E-3,-4.9699927E-3,2.3227802E-2,1.6117541E-2,-8.190533E-3,-1.2372197E-2,2.6778667E-3,-9.693955E-3],"split_indices":[1,12,12,13,3,27,27,0,0,0,0,0,0,0,0],"split_type":[0,0,0,0,0,0,0,0,0,0,0,0,0,0,0],"sum_hessian":[8.445262E2,2.7780942E2,5.667168E2,1.5300516E2,1.2480426E2,3.023597E2,2.6435706E2,9.336374E1,5.9641415E1,3.3693085E1,9.111117E1,1.6492021E2,1.374395E2,2.1476883E2,4.9588226E1],"tree_param":{"num_deleted":"0","num_feature":"35","num_nodes":"15","size_leaf_vector":"1"}},{"base_weights":[-6.417544E-2,7.3486596E-1,-5.559997E-1,1.9653535E-2,1.6456999E0,-1.0262532E0,-2.3063479E-2,6.412835E-3,-4.636749E-3,2.2925377E-2,1.4413372E-2,-8.363628E-3,-1.2408479E-2,2.188561E-3,-9.52012E-3],"categories":[],"categories_nodes":[],"categories_segments":[],"categories_sizes":[],"default_left":[0,0,0,0,0,0,0,0,0,0,0,0,0,0,0],"id":12,"left_children":[1,3,5,7,9,11,13,-1,-1,-1,-1,-1,-1,-1,-1],"loss_changes":[3.3394528E2,2.109012E2,1.3178085E2,5.5095848E1,1.552063E1,1.0346405E1,5.5841442E1,0E0,0E0,0E0,0E0,0E0,0E0,0E0,0E0],"parents":[2147483647,0,0,1,1,2,2,3,3,4,4,5,5,6,6],"right_children":[2,4,6,8,10,12,14,-1,-1,-1,-1,-1,-1,-1,-1],"split_conditions":[1.7E1,1E0,1E0,4E0,1.1705E2,1E0,1E0,6.412835E-3,-4.636749E-3,2.2925377E-2,1.4413372E-2,-8.363628E-3,-1.2408479E-2,2.188561E-3,-9.52012E-3],"split_indices":[1,12,12,1,3,27,27,0,0,0,0,0,0,0,0],"split_type":[0,0,0,0,0,0,0,0,0,0,0,0,0,0,0],"sum_hessian":[8.477201E2,3.22796E2,5.249241E2,1.813872E2,1.4140877E2,2.783698E2,2.4655429E2,7.919904E1,1.0218817E2,3.1497282E1,1.0991148E2,1.5028401E2,1.280858E2,1.9621881E2,5.033549E1],"tree_param":{"num_deleted":"0","num_feature":"35","num_nodes":"15","size_leaf_vector":"1"}},{"base_weights":[-3.1768996E-2,-5.0240415E-1,8.487395E-1,-1.7111546E-1,-1.2142189E0,1.3964076E0,1.1987793E-1,1.8964387E-3,-8.679162E-3,-1.2690877E-2,-9.724922E-3,7.75706E-3,1.6901692E-2,-7.622804E-3,4.904662E-3],"categories":[],"categories_nodes":[],"categories_segments":[],"categories_sizes":[],"default_left":[0,0,0,0,0,0,0,0,0,0,0,0,0,0,0],"id":13,"left_children":[1,3,5,7,9,11,13,-1,-1,-1,-1,-1,-1,-1,-1],"loss_changes":[3.5186508E2,1.3026825E2,1.1789818E2,9.536957E1,1.0943298E0,2.9464844E1,4.2215954E1,0E0,0E0,0E0,0E0,0E0,0E0,0E0,0E0],"parents":[2147483647,0,0,1,1,2,2,3,3,4,4,5,5,6,6],"right_children":[2,4,6,8,10,12,14,-1,-1,-1,-1,-1,-1,-1,-1],"split_conditions":[1E0,1E0,2.3E1,1E0,9.37E1,6.876532E1,1E0,1.8964387E-3,-8.679162E-3,-1.2690877E-2,-9.724922E-3,7.75706E-3,1.6901692E-2,-7.622804E-3,4.904662E-3],"split_indices":[30,27,1,26,2,4,12,0,0,0,0,0,0,0,0],"split_type":[0,0,0,0,0,0,0,0,0,0,0,0,0,0,0],"sum_hessian":[8.470699E2,5.5229535E2,2.9477454E2,3.777333E2,1.7456204E2,1.6778482E2,1.2698972E2,2.4935889E2,1.2837442E2,1.3880505E2,3.5756985E1,5.50686E1,1.1271622E2,3.7253513E1,8.9736206E1],"tree_param":{"num_deleted":"0","num_feature":"35","num_nodes":"15","size_leaf_vector":"1"}},{"base_weights":[-6.654338E-2,8.9740276E-1,-4.7669685E-1,2.2251488E-1,1.7015265E0,-9.89642E-1,1.1630765E-1,6.1866115E-3,-4.2354558E-3,1.4219167E-2,2.1158664E-2,-8.067424E-3,-1.2311871E-2,4.887412E-3,-6.0745147E-3],"categories":[],"categories_nodes":[],"categories_segments":[],"categories_sizes":[],"default_left":[0,0,0,0,0,0,0,0,0,0,0,0,0,0,0],"id":14,"left_children":[1,3,5,7,9,11,13,-1,-1,-1,-1,-1,-1,-1,-1],"loss_changes":[3.380754E2,1.3814948E2,1.8254718E2,3.607569E1,1.0468353E1,1.3218475E1,7.5519E1,0E0,0E0,0E0,0E0,0E0,0E0,0E0,0E0],"parents":[2147483647,0,0,1,1,2,2,3,3,4,4,5,5,6,6],"right_children":[2,4,6,8,10,12,14,-1,-1,-1,-1,-1,-1,-1,-1],"split_conditions":[1.1E1,1E0,1E0,1E0,1E0,1E0,5.6E1,6.1866115E-3,-4.2354558E-3,1.4219167E-2,2.1158664E-2,-8.067424E-3,-1.2311871E-2,4.887412E-3,-6.0745147E-3],"split_indices":[1,12,12,13,11,27,1,0,0,0,0,0,0,0,0],"split_type":[0,0,0,0,0,0,0,0,0,0,0,0,0,0,0],"sum_hessian":[8.5301306E2,2.5426033E2,5.9875275E2,1.3893292E2,1.153274E2,3.2068948E2,2.7806326E2,8.6150345E1,5.278258E1,7.150518E1,4.3822224E1,1.8496938E2,1.3572012E2,1.8380513E2,9.4258125E1],"tree_param":{"num_deleted":"0","num_feature":"35","num_nodes":"15","size_leaf_vector":"1"}},{"base_weights":[-7.960293E-2,8.436689E-1,-4.7658595E-1,1.8103077E-1,1.6508591E0,-9.702155E-1,1.0817453E-1,6.058717E-3,-4.858299E-3,2.1223215E-2,1.4294052E-2,-7.695396E-3,-1.2345771E-2,5.2633835E-3,-6.766432E-3],"categories":[],"categories_nodes":[],"categories_segments":[],"categories_sizes":[],"default_left":[0,0,0,0,0,0,0,0,0,0,0,0,0,0,0],"id":15,"left_children":[1,3,5,7,9,11,13,-1,-1,-1,-1,-1,-1,-1,-1],"loss_changes":[3.104596E2,1.3594696E2,1.7105162E2,4.0244156E1,8.943268E0,1.6091644E1,8.961698E1,0E0,0E0,0E0,0E0,0E0,0E0,0E0,0E0],"parents":[2147483647,0,0,1,1,2,2,3,3,4,4,5,5,6,6],"right_children":[2,4,6,8,10,12,14,-1,-1,-1,-1,-1,-1,-1,-1],"split_conditions":[1.1E1,1E0,1E0,1E0,1.1705E2,1E0,5.6E1,6.058717E-3,-4.858299E-3,2.1223215E-2,1.4294052E-2,-7.695396E-3,-1.2345771E-2,5.2633835E-3,-6.766432E-3],"split_indices":[1,12,12,13,3,27,1,0,0,0,0,0,0,0,0],"split_type":[0,0,0,0,0,0,0,0,0,0,0,0,0,0,0],"sum_hessian":[8.449423E2,2.5372456E2,5.912178E2,1.4001105E2,1.1371351E2,3.202323E2,2.7098547E2,8.558094E1,5.4430115E1,3.3599194E1,8.011431E1,1.8426692E2,1.359654E2,1.770041E2,9.398135E1],"tree_param":{"num_deleted":"0","num_feature":"35","num_nodes":"15","size_leaf_vector":"1"}},{"base_weights":[-7.4961126E-2,8.421642E-1,-4.6891358E-1,1.3373213E-1,1.6900513E0,-9.498081E-1,7.878495E-2,5.8853063E-3,-5.815671E-3,1.0915824E-2,1.8357558E-2,-7.4187564E-3,-1.2218037E-2,5.540145E-3,-4.99108E-3],"categories":[],"categories_nodes":[],"categories_segments":[],"categories_sizes":[],"default_left":[0,0,0,0,0,0,0,0,0,0,0,0,0,0,0],"id":16,"left_children":[1,3,5,7,9,11,13,-1,-1,-1,-1,-1,-1,-1,-1],"loss_changes":[3.0530838E2,1.5230841E2,1.5573164E2,4.5702305E1,8.068268E0,1.6895386E1,7.6411224E1,0E0,0E0,0E0,0E0,0E0,0E0,0E0,0E0],"parents":[2147483647,0,0,1,1,2,2,3,3,4,4,5,5,6,6],"right_children":[2,4,6,8,10,12,14,-1,-1,-1,-1,-1,-1,-1,-1],"split_conditions":[1.1E1,1E0,1E0,1E0,1E0,1E0,4.54905E3,5.8853063E-3,-5.815671E-3,1.0915824E-2,1.8357558E-2,-7.4187564E-3,-1.2218037E-2,5.540145E-3,-4.99108E-3],"split_indices":[1,12,12,13,28,27,3,0,0,0,0,0,0,0,0],"split_type":[0,0,0,0,0,0,0,0,0,0,0,0,0,0,0],"sum_hessian":[8.4292554E2,2.5294028E2,5.899852E2,1.3843332E2,1.1450696E2,3.1376056E2,2.7622467E2,8.473481E1,5.36985E1,2.4082396E1,9.042457E1,1.7993396E2,1.3382661E2,1.5159886E2,1.2462582E2],"tree_param":{"num_deleted":"0","num_feature":"35","num_nodes":"15","size_leaf_vector":"1"}},{"base_weights":[-7.521969E-2,-5.1080465E-1,7.3984826E-1,2.4309541E-1,-7.9541504E-1,1.230658E0,4.2444695E-2,-1.6153865E-3,1.4389664E-2,-5.320528E-3,-1.1666146E-2,5.6048706E-3,1.4691868E-2,-7.1704644E-3,3.5677324E-3],"categories":[],"categories_nodes":[],"categories_segments":[],"categories_sizes":[],"default_left":[0,0,0,0,0,0,0,0,0,0,0,0,0,0,0],"id":17,"left_children":[1,3,5,7,9,11,13,-1,-1,-1,-1,-1,-1,-1,-1],"loss_changes":[2.9927475E2,1.1804732E2,1.004539E2,7.3442444E1,3.8382324E1,2.6720154E1,2.945788E1,0E0,0E0,0E0,0E0,0E0,0E0,0E0,0E0],"parents":[2147483647,0,0,1,1,2,2,3,3,4,4,5,5,6,6],"right_children":[2,4,6,8,10,12,14,-1,-1,-1,-1,-1,-1,-1,-1],"split_conditions":[1E0,1.3E1,2.3E1,1E0,1E0,1E0,1E0,-1.6153865E-3,1.4389664E-2,-5.320528E-3,-1.1666146E-2,5.6048706E-3,1.4691868E-2,-7.1704644E-3,3.5677324E-3],"split_indices":[30,1,1,12,27,28,12,0,0,0,0,0,0,0,0],"split_type":[0,0,0,0,0,0,0,0,0,0,0,0,0,0,0],"sum_hessian":[8.4088855E2,5.482621E2,2.9262646E2,1.5029466E2,3.979674E2,1.7130382E2,1.2132265E2,1.1294395E2,3.7350716E1,2.3422238E2,1.6374503E2,4.584562E1,1.254582E2,3.513854E1,8.6184105E1],"tree_param":{"num_deleted":"0","num_feature":"35","num_nodes":"15","size_leaf_vector":"1"}},{"base_weights":[-4.4297088E-2,6.1607426E-1,-5.8609796E-1,-7.128564E-2,1.4505708E0,-1.0350533E0,-7.5284444E-2,5.7769427E-3,-4.5732656E-3,1.4939636E-2,-1.0416544E-2,-8.514575E-3,-1.2011449E-2,1.7280241E-3,-9.262089E-3],"categories":[],"categories_nodes":[],"categories_segments":[],"categories_sizes":[],"default_left":[0,0,0,0,0,0,0,0,0,0,0,0,0,0,0],"id":18,"left_children":[1,3,5,7,9,11,13,-1,-1,-1,-1,-1,-1,-1,-1],"loss_changes":[3.050321E2,2.2051599E2,1.07312546E2,5.329195E1,2.0330353E1,6.574768E0,4.6629177E1,0E0,0E0,0E0,0E0,0E0,0E0,0E0,0E0],"parents":[2147483647,0,0,1,1,2,2,3,3,4,4,5,5,6,6],"right_children":[2,4,6,8,10,12,14,-1,-1,-1,-1,-1,-1,-1,-1],"split_conditions":[2.3E1,1E0,1E0,4E0,1E0,1E0,1E0,5.7769427E-3,-4.5732656E-3,1.4939636E-2,-1.0416544E-2,-8.514575E-3,-1.2011449E-2,1.7280241E-3,-9.262089E-3],"split_indices":[1,12,12,1,26,27,27,0,0,0,0,0,0,0,0],"split_type":[0,0,0,0,0,0,0,0,0,0,0,0,0,0,0],"sum_hessian":[8.5053644E2,3.8326215E2,4.672743E2,2.1065991E2,1.7260223E2,2.4814912E2,2.1912517E2,7.838653E1,1.3227338E2,1.7004213E2,2.5600963E0,1.2077372E2,1.27375404E2,1.7027768E2,4.88475E1],"tree_param":{"num_deleted":"0","num_feature":"35","num_nodes":"15","size_leaf_vector":"1"}},{"base_weights":[-5.9862524E-2,-4.953096E-1,7.328313E-1,2.5481144E-1,-7.812461E-1,1.1838413E0,1.5230041E-2,-2.0664895E-3,1.4908771E-2,-5.0749364E-3,-1.1741E-2,1.275206E-2,-6.0065095E-3,-7.108203E-3,3.1726812E-3],"categories":[],"categories_nodes":[],"categories_segments":[],"categories_sizes":[],"default_left":[0,0,0,0,0,0,0,0,0,0,0,0,0,0,0],"id":19,"left_children":[1,3,5,7,9,11,13,-1,-1,-1,-1,-1,-1,-1,-1],"loss_changes":[2.910506E2,1.16912415E2,9.674928E1,8.6398834E1,4.18004E1,3.0697784E1,2.5752525E1,0E0,0E0,0E0,0E0,0E0,0E0,0E0,0E0],"parents":[2147483647,0,0,1,1,2,2,3,3,4,4,5,5,6,6],"right_children":[2,4,6,8,10,12,14,-1,-1,-1,-1,-1,-1,-1,-1],"split_conditions":[1E0,1.3E1,2.7E1,1E0,1E0,1E0,1E0,-2.0664895E-3,1.4908771E-2,-5.0749364E-3,-1.1741E-2,1.275206E-2,-6.0065095E-3,-7.108203E-3,3.1726812E-3],"split_indices":[30,1,1,12,27,13,12,0,0,0,0,0,0,0,0],"split_type":[0,0,0,0,0,0,0,0,0,0,0,0,0,0,0],"sum_hessian":[8.4114276E2,5.431511E2,2.979917E2,1.499317E2,3.932194E2,1.8258676E2,1.1540492E2,1.0978026E2,4.0151447E1,2.3308827E2,1.6013112E2,1.7396529E2,8.621482E0,3.350675E1,8.189818E1],"tree_param":{"num_deleted":"0","num_feature":"35","num_nodes":"15","size_leaf_vector":"1"}},{"base_weights":[-9.801978E-2,5.4158586E-1,-6.335496E-1,-1.0329148E-1,1.2998657E0,-1.0164231E0,-1.9604392E-1,2.8456496E-3,-6.8050856E-3,1.9606637E-2,1.1379035E-2,-8.271696E-3,-1.1911577E-2,3.1801107E-4,-9.438018E-3],"categories":[],"categories_nodes":[],"categories_segments":[],"categories_sizes":[],"default_left":[0,0,0,0,0,0,0,0,0,0,0,0,0,0,0],"id":20,"left_children":[1,3,5,7,9,11,13,-1,-1,-1,-1,-1,-1,-1,-1],"loss_changes":[2.896463E2,1.8861525E2,7.6883255E1,4.7034134E1,1.6735779E1,7.122177E0,3.683074E1,0E0,0E0,0E0,0E0,0E0,0E0,0E0,0E0],"parents":[2147483647,0,0,1,1,2,2,3,3,4,4,5,5,6,6],"right_children":[2,4,6,8,10,12,14,-1,-1,-1,-1,-1,-1,-1,-1],"split_conditions":[2.3E1,1E0,1E0,1E0,1.286E2,1E0,1E0,2.8456496E-3,-6.8050856E-3,1.9606637E-2,1.1379035E-2,-8.271696E-3,-1.1911577E-2,3.1801107E-4,-9.438018E-3],"split_indices":[1,12,12,13,3,27,27,0,0,0,0,0,0,0,0],"split_type":[0,0,0,0,0,0,0,0,0,0,0,0,0,0,0],"sum_hessian":[8.4361206E2,3.8444363E2,4.5916846E2,2.0822389E2,1.7621974E2,2.4416742E2,2.1500102E2,1.2484337E2,8.3380516E1,3.250308E1,1.4371666E2,1.19966576E2,1.2420085E2,1.6552295E2,4.9478077E1],"tree_param":{"num_deleted":"0","num_feature":"35","num_nodes":"15","size_leaf_vector":"1"}},{"base_weights":[-8.142151E-2,5.9066033E-1,-6.3338345E-1,-5.9435867E-2,1.3639218E0,-1.0634906E0,-1.5218106E-1,6.2325564E-3,-4.759499E-3,1.66717E-2,9.447831E-3,-9.373177E-3,-1.1777206E-2,8.362269E-4,-9.687689E-3],"categories":[],"categories_nodes":[],"categories_segments":[],"categories_sizes":[],"default_left":[0,0,0,0,0,0,0,0,0,0,0,0,0,0,0],"id":21,"left_children":[1,3,5,7,9,11,13,-1,-1,-1,-1,-1,-1,-1,-1],"loss_changes":[3.1046005E2,1.8982278E2,9.4928604E1,5.887673E1,2.034198E1,2.3902588E0,4.20596E1,0E0,0E0,0E0,0E0,0E0,0E0,0E0,0E0],"parents":[2147483647,0,0,1,1,2,2,3,3,4,4,5,5,6,6],"right_children":[2,4,6,8,10,12,14,-1,-1,-1,-1,-1,-1,-1,-1],"split_conditions":[2.3E1,1E0,1E0,4E0,9E0,1E0,1E0,6.2325564E-3,-4.759499E-3,1.66717E-2,9.447831E-3,-9.373177E-3,-1.1777206E-2,8.362269E-4,-9.687689E-3],"split_indices":[1,12,12,1,1,27,27,0,0,0,0,0,0,0,0],"split_type":[0,0,0,0,0,0,0,0,0,0,0,0,0,0,0],"sum_hessian":[8.3489325E2,3.7644946E2,4.5844382E2,2.050136E2,1.7143585E2,2.4143492E2,2.170089E2,7.749625E1,1.2751736E2,9.7741745E1,7.3694115E1,1.1909441E2,1.22340515E2,1.6908134E2,4.7927547E1],"tree_param":{"num_deleted":"0","num_feature":"35","num_nodes":"15","size_leaf_vector":"1"}},{"base_weights":[-7.959633E-2,-5.0236374E-1,7.15988E-1,1.4491925E-1,-8.1886894E-1,1.1789166E0,9.619349E-2,-2.3834142E-3,1.2170937E-2,-1.048429E-2,-4.2909426E-3,4.9849204E-3,1.4938249E-2,-7.0577986E-3,4.177514E-3],"categories":[],"categories_nodes":[],"categories_segments":[],"categories_sizes":[],"default_left":[0,0,0,0,0,0,0,0,0,0,0,0,0,0,0],"id":22,"left_children":[1,3,5,7,9,11,13,-1,-1,-1,-1,-1,-1,-1,-1],"loss_changes":[2.8198407E2,1.1225273E2,8.336786E1,7.45013E1,3.24552E1,3.492427E1,3.2656273E1,0E0,0E0,0E0,0E0,0E0,0E0,0E0,0E0],"parents":[2147483647,0,0,1,1,2,2,3,3,4,4,5,5,6,6],"right_children":[2,4,6,8,10,12,14,-1,-1,-1,-1,-1,-1,-1,-1],"split_conditions":[1E0,1.7E1,2.3E1,1E0,1E0,1E0,1E0,-2.3834142E-3,1.2170937E-2,-1.048429E-2,-4.2909426E-3,4.9849204E-3,1.4938249E-2,-7.0577986E-3,4.177514E-3],"split_indices":[30,1,1,12,12,12,12,0,0,0,0,0,0,0,0],"split_type":[0,0,0,0,0,0,0,0,0,0,0,0,0,0,0],"sum_hessian":[8.3630273E2,5.463468E2,2.8995596E2,1.795967E2,3.667501E2,1.6546611E2,1.2448984E2,1.3287628E2,4.67204E1,2.2974854E2,1.3700156E2,5.316821E1,1.12297905E2,3.528738E1,8.920245E1],"tree_param":{"num_deleted":"0","num_feature":"35","num_nodes":"15","size_leaf_vector":"1"}},{"base_weights":[-8.489776E-2,-5.07895E-1,6.858816E-1,4.831071E-1,-7.109904E-1,1.1392566E0,7.759331E-2,1.5433267E-3,1.3972499E-2,-1.0036288E-2,-2.0619782E-3,1.2172737E-2,-4.2417203E-3,-7.2997194E-3,4.1059377E-3],"categories":[],"categories_nodes":[],"categories_segments":[],"categories_sizes":[],"default_left":[0,0,0,0,0,0,0,0,0,0,0,0,0,0,0],"id":23,"left_children":[1,3,5,7,9,11,13,-1,-1,-1,-1,-1,-1,-1,-1],"loss_changes":[2.7439944E2,1.0969008E2,8.2167175E1,2.7735043E1,6.645822E1,2.1351822E1,3.4840736E1,0E0,0E0,0E0,0E0,0E0,0E0,0E0,0E0],"parents":[2147483647,0,0,1,1,2,2,3,3,4,4,5,5,6,6],"right_children":[2,4,6,8,10,12,14,-1,-1,-1,-1,-1,-1,-1,-1],"split_conditions":[1E0,6E0,2.3E1,6.545E1,1E0,1E0,1E0,1.5433267E-3,1.3972499E-2,-1.0036288E-2,-2.0619782E-3,1.2172737E-2,-4.2417203E-3,-7.2997194E-3,4.1059377E-3],"split_indices":[30,1,1,2,12,13,12,0,0,0,0,0,0,0,0],"split_type":[0,0,0,0,0,0,0,0,0,0,0,0,0,0,0],"sum_hessian":[8.395507E2,5.4228845E2,2.9726227E2,9.1999435E1,4.50289E2,1.6981863E2,1.2744364E2,6.852355E1,2.3475887E1,2.84418E2,1.65871E2,1.6195811E2,7.8605194E0,3.68605E1,9.0583145E1],"tree_param":{"num_deleted":"0","num_feature":"35","num_nodes":"15","size_leaf_vector":"1"}},{"base_weights":[-5.5446714E-2,2.5147772E-1,-1.1535393E0,6.09455E-1,-7.943558E-1,-1.194995E-2,-9.183813E-1,3.521665E-4,1.0461105E-2,-1.1186668E-2,-4.036174E-3,-5.8744433E-3,-1.2456878E-2],"categories":[],"categories_nodes":[],"categories_segments":[],"categories_sizes":[],"default_left":[0,0,0,0,0,0,0,0,0,0,0,0,0],"id":24,"left_children":[1,3,5,7,9,-1,11,-1,-1,-1,-1,-1,-1],"loss_changes":[2.8250803E2,2.4580476E2,6.875E-1,1.2251059E2,2.0777878E1,0E0,2.7085152E0,0E0,0E0,0E0,0E0,0E0,0E0],"parents":[2147483647,0,0,1,1,2,2,3,3,4,4,6,6],"right_children":[2,4,6,8,10,-1,12,-1,-1,-1,-1,-1,-1],"split_conditions":[1E0,1E0,1.0325E2,1E0,1E0,-1.194995E-2,7.76725E3,3.521665E-4,1.0461105E-2,-1.1186668E-2,-4.036174E-3,-5.8744433E-3,-1.2456878E-2],"split_indices":[27,26,2,12,25,0,3,0,0,0,0,0,0],"split_type":[0,0,0,0,0,0,0,0,0,0,0,0,0],"sum_hessian":[8.363638E2,6.542636E2,1.8210019E2,4.8773465E2,1.6652895E2,1.5133914E2,3.0761053E1,2.1114372E2,2.7659094E2,8.998166E1,7.654728E1,1.6685385E1,1.4075669E1],"tree_param":{"num_deleted":"0","num_feature":"35","num_nodes":"13","size_leaf_vector":"1"}},{"base_weights":[-6.845326E-2,7.93061E-1,-4.497484E-1,1.6948399E-1,1.4989631E0,-9.2280865E-1,7.760676E-2,5.569993E-3,-4.7237584E-3,1.975299E-2,1.283717E-2,-7.3259925E-3,-1.1738183E-2,2.9694454E-3,-9.144733E-3],"categories":[],"categories_nodes":[],"categories_segments":[],"categories_sizes":[],"default_left":[0,0,0,0,0,0,0,0,0,0,0,0,0,0,0],"id":25,"left_children":[1,3,5,7,9,11,13,-1,-1,-1,-1,-1,-1,-1,-1],"loss_changes":[2.7801413E2,1.140555E2,1.4640247E2,3.483928E1,9.939575E0,1.3906342E1,6.0827168E1,0E0,0E0,0E0,0E0,0E0,0E0,0E0,0E0],"parents":[2147483647,0,0,1,1,2,2,3,3,4,4,5,5,6,6],"right_children":[2,4,6,8,10,12,14,-1,-1,-1,-1,-1,-1,-1,-1],"split_conditions":[1.1E1,1E0,1E0,1E0,1.1705E2,1E0,1E0,5.569993E-3,-4.7237584E-3,1.975299E-2,1.283717E-2,-7.3259925E-3,-1.1738183E-2,2.9694454E-3,-9.144733E-3],"split_indices":[1,12,12,13,3,27,27,0,0,0,0,0,0,0,0],"split_type":[0,0,0,0,0,0,0,0,0,0,0,0,0,0,0],"sum_hessian":[8.4425085E2,2.5868567E2,5.855652E2,1.3801054E2,1.2067512E2,3.082773E2,2.7728787E2,8.613797E1,5.1872578E1,3.5013626E1,8.566149E1,1.7760838E2,1.3066893E2,2.276563E2,4.963157E1],"tree_param":{"num_deleted":"0","num_feature":"35","num_nodes":"15","size_leaf_vector":"1"}},{"base_weights":[-6.3460924E-2,5.658207E-1,-6.0164255E-1,-7.330388E-2,1.2628242E0,-1.0130461E0,-1.4410856E-1,4.218392E-3,-5.362423E-3,1.5373158E-2,8.840512E-3,-8.321574E-3,-1.1828722E-2,-5.0759856E-3,3.7709828E-3],"categories":[],"categories_nodes":[],"categories_segments":[],"categories_sizes":[],"default_left":[0,0,0,0,0,0,0,0,0,0,0,0,0,0,0],"id":26,"left_children":[1,3,5,7,9,11,13,-1,-1,-1,-1,-1,-1,-1,-1],"loss_changes":[2.8263852E2,1.7149704E2,8.4517395E1,4.6451836E1,1.7782501E1,6.2859344E0,4.075696E1,0E0,0E0,0E0,0E0,0E0,0E0,0E0,0E0],"parents":[2147483647,0,0,1,1,2,2,3,3,4,4,5,5,6,6],"right_children":[2,4,6,8,10,12,14,-1,-1,-1,-1,-1,-1,-1,-1],"split_conditions":[2.3E1,1E0,1E0,6E0,9E0,1E0,1E0,4.218392E-3,-5.362423E-3,1.5373158E-2,8.840512E-3,-8.321574E-3,-1.1828722E-2,-5.0759856E-3,3.7709828E-3],"split_indices":[1,12,12,1,1,27,30,0,0,0,0,0,0,0,0],"split_type":[0,0,0,0,0,0,0,0,0,0,0,0,0,0,0],"sum_hessian":[8.325546E2,3.837705E2,4.4878412E2,2.0066422E2,1.8310631E2,2.3566534E2,2.1311877E2,9.700247E1,1.0366174E2,1.04394394E2,7.871191E1,1.1697288E2,1.18692474E2,1.25571335E2,8.754743E1],"tree_param":{"num_deleted":"0","num_feature":"35","num_nodes":"15","size_leaf_vector":"1"}},{"base_weights":[-4.859263E-2,2.409095E-1,-1.1149881E0,5.744346E-1,-7.269191E-1,-1.1745241E0,-7.355334E-1,3.132303E-4,9.797936E-3,-1.0842057E-2,-2.988248E-3,-1.1978844E-2,-8.334367E-3,2.933102E-3,-9.64127E-3],"categories":[],"categories_nodes":[],"categories_segments":[],"categories_sizes":[],"default_left":[0,0,0,0,0,0,0,0,0,0,0,0,0,0,0],"id":27,"left_children":[1,3,5,7,9,11,13,-1,-1,-1,-1,-1,-1,-1,-1],"loss_changes":[2.620416E2,2.1594786E2,3.230072E0,1.09415726E2,2.5917572E1,2.3638916E-1,6.692236E0,0E0,0E0,0E0,0E0,0E0,0E0,0E0,0E0],"parents":[2147483647,0,0,1,1,2,2,3,3,4,4,5,5,6,6],"right_children":[2,4,6,8,10,12,14,-1,-1,-1,-1,-1,-1,-1,-1],"split_conditions":[1E0,1E0,1.0533047E2,1E0,1E0,1E0,1.0721742E2,3.132303E-4,9.797936E-3,-1.0842057E-2,-2.988248E-3,-1.1978844E-2,-8.334367E-3,2.933102E-3,-9.64127E-3],"split_indices":[27,26,4,12,25,30,4,0,0,0,0,0,0,0,0],"split_type":[0,0,0,0,0,0,0,0,0,0,0,0,0,0,0],"sum_hessian":[8.4691974E2,6.6669995E2,1.8021979E2,4.9613312E2,1.705668E2,1.5396724E2,2.6252548E1,2.1249866E2,2.8363446E2,9.21369E1,7.84299E1,1.417473E2,1.2219952E1,4.721069E0,2.1531479E1],"tree_param":{"num_deleted":"0","num_feature":"35","num_nodes":"15","size_leaf_vector":"1"}},{"base_weights":[-5.2197002E-2,7.7112174E-1,-4.2332828E-1,1.0837394E0,-4.9962065E-1,-9.013056E-1,9.1185324E-2,6.260147E-3,1.3986393E-2,4.036938E-3,-1.0183837E-2,-7.0679775E-3,-1.16656395E-2,5.461449E-3,-3.7250556E-3],"categories":[],"categories_nodes":[],"categories_segments":[],"categories_sizes":[],"default_left":[0,0,0,0,0,0,0,0,0,0,0,0,0,0,0],"id":28,"left_children":[1,3,5,7,9,11,13,-1,-1,-1,-1,-1,-1,-1,-1],"loss_changes":[2.5726697E2,1.0447514E2,1.427824E2,2.943489E1,2.4938087E1,1.4700439E1,5.9347576E1,0E0,0E0,0E0,0E0,0E0,0E0,0E0,0E0],"parents":[2147483647,0,0,1,1,2,2,3,3,4,4,5,5,6,6],"right_children":[2,4,6,8,10,12,14,-1,-1,-1,-1,-1,-1,-1,-1],"split_conditions":[1.1E1,1E0,1E0,1E0,2.44E1,1E0,4.4E1,6.260147E-3,1.3986393E-2,4.036938E-3,-1.0183837E-2,-7.0679775E-3,-1.16656395E-2,5.461449E-3,-3.7250556E-3],"split_indices":[1,13,12,12,3,27,1,0,0,0,0,0,0,0,0],"split_type":[0,0,0,0,0,0,0,0,0,0,0,0,0,0,0],"sum_hessian":[8.398858E2,2.6062866E2,5.7925714E2,2.092884E2,5.134026E1,2.9990088E2,2.793563E2,8.651786E1,1.2277054E2,1.8809454E1,3.2530807E1,1.751396E2,1.2476127E2,1.4091597E2,1.3844032E2],"tree_param":{"num_deleted":"0","num_feature":"35","num_nodes":"15","size_leaf_vector":"1"}},{"base_weights":[-7.973651E-2,6.1003333E-1,-5.396818E-1,-1.419683E-2,1.3681668E0,-8.0987847E-1,1.4017622E-1,4.517923E-3,-6.0550007E-3,6.4606164E-3,1.54568525E-2,-5.822742E-3,-1.1146273E-2,-6.291384E-3,4.3283487E-3],"categories":[],"categories_nodes":[],"categories_segments":[],"categories_sizes":[],"default_left":[0,0,0,0,0,0,0,0,0,0,0,0,0,0,0],"id":29,"left_children":[1,3,5,7,9,11,13,-1,-1,-1,-1,-1,-1,-1,-1],"loss_changes":[2.6519498E2,1.5830151E2,9.221942E1,5.108808E1,1.8362823E1,2.4248734E1,3.257023E1,0E0,0E0,0E0,0E0,0E0,0E0,0E0,0E0],"parents":[2147483647,0,0,1,1,2,2,3,3,4,4,5,5,6,6],"right_children":[2,4,6,8,10,12,14,-1,-1,-1,-1,-1,-1,-1,-1],"split_conditions":[1.7E1,1E0,1E0,6E0,1E0,1E0,1E0,4.517923E-3,-6.0550007E-3,6.4606164E-3,1.54568525E-2,-5.822742E-3,-1.1146273E-2,-6.291384E-3,4.3283487E-3],"split_indices":[1,12,30,1,28,27,12,0,0,0,0,0,0,0,0],"split_type":[0,0,0,0,0,0,0,0,0,0,0,0,0,0,0],"sum_hessian":[8.338634E2,3.3345776E2,5.0040564E2,1.8341733E2,1.5004045E2,3.5795282E2,1.4245282E2,1.0271026E2,8.070707E1,3.0522234E1,1.1951821E2,2.0657855E2,1.5137427E2,3.8940315E1,1.03512505E2],"tree_param":{"num_deleted":"0","num_feature":"35","num_nodes":"15","size_leaf_vector":"1"}},{"base_weights":[-5.903337E-2,2.223734E-1,-1.1146948E0,5.399979E-1,-7.2554713E-1,-1.1665055E-2,-8.363427E-1,4.186672E-4,8.961471E-3,-1.0335966E-2,-3.6581834E-3,-4.6265465E-3,-1.2288872E-2],"categories":[],"categories_nodes":[],"categories_segments":[],"categories_sizes":[],"default_left":[0,0,0,0,0,0,0,0,0,0,0,0,0],"id":30,"left_children":[1,3,5,7,9,-1,11,-1,-1,-1,-1,-1,-1],"loss_changes":[2.5104123E2,2.013273E2,1.5892181E0,8.874727E1,1.8230255E1,0E0,4.043585E0,0E0,0E0,0E0,0E0,0E0,0E0],"parents":[2147483647,0,0,1,1,2,2,3,3,4,4,6,6],"right_children":[2,4,6,8,10,-1,12,-1,-1,-1,-1,-1,-1],"split_conditions":[1E0,1E0,1.0325E2,1E0,1E0,-1.1665055E-2,7.76725E3,4.186672E-4,8.961471E-3,-1.0335966E-2,-3.6581834E-3,-4.6265465E-3,-1.2288872E-2],"split_indices":[27,26,2,12,25,0,3,0,0,0,0,0,0],"split_type":[0,0,0,0,0,0,0,0,0,0,0,0,0],"sum_hessian":[8.4322235E2,6.663763E2,1.7684602E2,4.9945258E2,1.6692375E2,1.4640446E2,3.0441551E1,2.0868752E2,2.9076505E2,8.891186E1,7.801189E1,1.6711458E1,1.3730092E1],"tree_param":{"num_deleted":"0","num_feature":"35","num_nodes":"13","size_leaf_vector":"1"}},{"base_weights":[-6.059748E-2,5.235053E-1,-5.658962E-1,-3.5055872E-2,1.1939942E0,-9.839113E-1,-1.3022174E-1,5.8811666E-3,-4.1333E-3,5.6160972E-3,1.36431E-2,-8.113808E-3,-1.1466875E-2,8.572346E-4,-9.341947E-3],"categories":[],"categories_nodes":[],"categories_segments":[],"categories_sizes":[],"default_left":[0,0,0,0,0,0,0,0,0,0,0,0,0,0,0],"id":31,"left_children":[1,3,5,7,9,11,13,-1,-1,-1,-1,-1,-1,-1,-1],"loss_changes":[2.4887271E2,1.4653665E2,8.2198395E1,5.0775436E1,1.8383743E1,5.544281E0,3.8709496E1,0E0,0E0,0E0,0E0,0E0,0E0,0E0,0E0],"parents":[2147483647,0,0,1,1,2,2,3,3,4,4,5,5,6,6],"right_children":[2,4,6,8,10,12,14,-1,-1,-1,-1,-1,-1,-1,-1],"split_conditions":[2.3E1,1E0,1E0,4E0,1E0,1E0,1E0,5.8811666E-3,-4.1333E-3,5.6160972E-3,1.36431E-2,-8.113808E-3,-1.1466875E-2,8.572346E-4,-9.341947E-3],"split_indices":[1,12,12,1,28,27,27,0,0,0,0,0,0,0,0],"split_type":[0,0,0,0,0,0,0,0,0,0,0,0,0,0,0],"sum_hessian":[8.412142E2,3.9016495E2,4.5104922E2,2.1336534E2,1.7679959E2,2.2954764E2,2.2150159E2,8.038446E1,1.329809E2,3.842493E1,1.3837465E2,1.1434026E2,1.1520737E2,1.7530772E2,4.6193863E1],"tree_param":{"num_deleted":"0","num_feature":"35","num_nodes":"15","size_leaf_vector":"1"}},{"base_weights":[-5.648627E-2,6.4500374E-1,-5.0923485E-1,5.747097E-2,1.3132796E0,-7.986836E-1,2.1410757E-1,5.3501627E-3,-3.3170907E-3,1.0320672E-2,1.6615152E-2,-5.5743223E-3,-1.1362161E-2,-4.455684E-3,4.7874986E-3],"categories":[],"categories_nodes":[],"categories_segments":[],"categories_sizes":[],"default_left":[0,0,0,0,0,0,0,0,0,0,0,0,0,0,0],"id":32,"left_children":[1,3,5,7,9,11,13,-1,-1,-1,-1,-1,-1,-1,-1],"loss_changes":[2.6462048E2,1.282584E2,1.06176056E2,3.2697754E1,1.3255829E1,2.8829453E1,2.561211E1,0E0,0E0,0E0,0E0,0E0,0E0,0E0,0E0],"parents":[2147483647,0,0,1,1,2,2,3,3,4,4,5,5,6,6],"right_children":[2,4,6,8,10,12,14,-1,-1,-1,-1,-1,-1,-1,-1],"split_conditions":[1.6E1,1E0,1E0,4E0,8.315938E1,1E0,1E0,5.3501627E-3,-3.3170907E-3,1.0320672E-2,1.6615152E-2,-5.5743223E-3,-1.1362161E-2,-4.455684E-3,4.7874986E-3],"split_indices":[1,12,30,1,4,27,12,0,0,0,0,0,0,0,0],"split_type":[0,0,0,0,0,0,0,0,0,0,0,0,0,0,0],"sum_hessian":[8.3115735E2,3.258538E2,5.0530353E2,1.739803E2,1.518735E2,3.6081686E2,1.4448665E2,7.795298E1,9.602732E1,8.6215324E1,6.565818E1,2.1196577E2,1.4885109E2,4.1172348E1,1.0331431E2],"tree_param":{"num_deleted":"0","num_feature":"35","num_nodes":"15","size_leaf_vector":"1"}},{"base_weights":[-5.360135E-2,7.034664E-1,-4.596832E-1,1.3976131E-1,1.3615062E0,-9.191736E-1,2.1256661E-2,4.979849E-3,-4.2990204E-3,1.876038E-2,1.1611117E-2,-7.3855505E-3,-1.153329E-2,4.108221E-3,-4.9623935E-3],"categories":[],"categories_nodes":[],"categories_segments":[],"categories_sizes":[],"default_left":[0,0,0,0,0,0,0,0,0,0,0,0,0,0,0],"id":33,"left_children":[1,3,5,7,9,11,13,-1,-1,-1,-1,-1,-1,-1,-1],"loss_changes":[2.5674756E2,1.07973465E2,1.20124374E2,3.2491035E1,1.168219E1,1.090419E1,5.393502E1,0E0,0E0,0E0,0E0,0E0,0E0,0E0,0E0],"parents":[2147483647,0,0,1,1,2,2,3,3,4,4,5,5,6,6],"right_children":[2,4,6,8,10,12,14,-1,-1,-1,-1,-1,-1,-1,-1],"split_conditions":[1.3E1,1E0,1E0,1E0,1.1705E2,1E0,5E1,4.979849E-3,-4.2990204E-3,1.876038E-2,1.1611117E-2,-7.3855505E-3,-1.153329E-2,4.108221E-3,-4.9623935E-3],"split_indices":[1,12,12,13,3,27,1,0,0,0,0,0,0,0,0],"split_type":[0,0,0,0,0,0,0,0,0,0,0,0,0,0,0],"sum_hessian":[8.330857E2,2.905934E2,5.4249225E2,1.571685E2,1.334249E2,2.769668E2,2.6552548E2,9.656868E1,6.0599827E1,3.50553E1,9.836959E1,1.587033E2,1.182635E2,1.5160501E2,1.1392049E2],"tree_param":{"num_deleted":"0","num_feature":"35","num_nodes":"15","size_leaf_vector":"1"}},{"base_weights":[-6.170628E-2,7.350383E-1,-4.2732894E-1,1.0329788E0,-4.752787E-1,-8.932052E-1,6.800184E-2,5.486571E-3,1.3504967E-2,4.2235316E-3,-9.831322E-3,-7.1037496E-3,-1.1511564E-2,5.2128015E-3,-4.084851E-3],"categories":[],"categories_nodes":[],"categories_segments":[],"categories_sizes":[],"default_left":[0,0,0,0,0,0,0,0,0,0,0,0,0,0,0],"id":34,"left_children":[1,3,5,7,9,11,13,-1,-1,-1,-1,-1,-1,-1,-1],"loss_changes":[2.4122374E2,9.442731E1,1.3101749E2,3.1453796E1,2.4185707E1,1.2977539E1,5.9819805E1,0E0,0E0,0E0,0E0,0E0,0E0,0E0,0E0],"parents":[2147483647,0,0,1,1,2,2,3,3,4,4,5,5,6,6],"right_children":[2,4,6,8,10,12,14,-1,-1,-1,-1,-1,-1,-1,-1],"split_conditions":[1.1E1,1E0,1E0,1E0,2.44E1,1E0,4.4E1,5.486571E-3,1.3504967E-2,4.2235316E-3,-9.831322E-3,-7.1037496E-3,-1.1511564E-2,5.2128015E-3,-4.084851E-3],"split_indices":[1,13,12,12,3,27,1,0,0,0,0,0,0,0,0],"split_type":[0,0,0,0,0,0,0,0,0,0,0,0,0,0,0],"sum_hessian":[8.259932E2,2.5949838E2,5.664948E2,2.0835477E2,5.114362E1,2.915131E2,2.7498172E2,8.3586E1,1.2476877E2,1.8540905E1,3.2602715E1,1.7279417E2,1.1871892E2,1.4087471E2,1.3410701E2],"tree_param":{"num_deleted":"0","num_feature":"35","num_nodes":"15","size_leaf_vector":"1"}},{"base_weights":[-5.0575342E-2,-4.5089096E-1,6.402139E-1,-1.7825203E-1,-1.1116903E0,1.0094821E0,1.3081354E-2,1.3036683E-3,-8.139542E-3,-1.1697643E-2,-7.0399945E-3,3.839E-3,1.2315816E-2,-7.5385664E-3,3.2814848E-3],"categories":[],"categories_nodes":[],"categories_segments":[],"categories_sizes":[],"default_left":[0,0,0,0,0,0,0,0,0,0,0,0,0,0,0],"id":35,"left_children":[1,3,5,7,9,11,13,-1,-1,-1,-1,-1,-1,-1,-1],"loss_changes":[2.3323473E2,9.5989944E1,7.1654755E1,7.4491974E1,2.8641205E0,2.6588669E1,2.8205908E1,0E0,0E0,0E0,0E0,0E0,0E0,0E0,0E0],"parents":[2147483647,0,0,1,1,2,2,3,3,4,4,5,5,6,6],"right_children":[2,4,6,8,10,12,14,-1,-1,-1,-1,-1,-1,-1,-1],"split_conditions":[1E0,1E0,2.7E1,1E0,1.05671425E2,1E0,1E0,1.3036683E-3,-8.139542E-3,-1.1697643E-2,-7.0399945E-3,3.839E-3,1.2315816E-2,-7.5385664E-3,3.2814848E-3],"split_indices":[30,27,1,26,4,28,12,0,0,0,0,0,0,0,0],"split_type":[0,0,0,0,0,0,0,0,0,0,0,0,0,0,0],"sum_hessian":[8.413785E2,5.329049E2,3.084736E2,3.7815274E2,1.5475215E2,1.937689E2,1.14704704E2,2.5510167E2,1.2305109E2,1.3382063E2,2.0931522E1,5.148392E1,1.4228499E2,3.299512E1,8.170958E1],"tree_param":{"num_deleted":"0","num_feature":"35","num_nodes":"15","size_leaf_vector":"1"}},{"base_weights":[-4.3615974E-2,2.3000027E-1,-1.1085447E0,5.343878E-1,-7.223733E-1,-1.1721987E0,-7.8024787E-1,3.8882173E-4,8.916605E-3,-1.0531223E-2,-3.509228E-3,-1.1933869E-2,-8.308507E-3,-1.7490798E-3,-1.0925119E-2],"categories":[],"categories_nodes":[],"categories_segments":[],"categories_sizes":[],"default_left":[0,0,0,0,0,0,0,0,0,0,0,0,0,0,0],"id":36,"left_children":[1,3,5,7,9,11,13,-1,-1,-1,-1,-1,-1,-1,-1],"loss_changes":[2.4291875E2,1.9269824E2,2.6464996E0,8.906416E1,1.9422646E1,2.6397705E-2,5.605467E0,0E0,0E0,0E0,0E0,0E0,0E0,0E0,0E0],"parents":[2147483647,0,0,1,1,2,2,3,3,4,4,5,5,6,6],"right_children":[2,4,6,8,10,12,14,-1,-1,-1,-1,-1,-1,-1,-1],"split_conditions":[1E0,1E0,1.0325E2,1E0,1E0,1E0,7.43075E3,3.8882173E-4,8.916605E-3,-1.0531223E-2,-3.509228E-3,-1.1933869E-2,-8.308507E-3,-1.7490798E-3,-1.0925119E-2],"split_indices":[27,26,2,12,25,30,3,0,0,0,0,0,0,0,0],"split_type":[0,0,0,0,0,0,0,0,0,0,0,0,0,0,0],"sum_hessian":[8.318036E2,6.623957E2,1.6940787E2,5.0229605E2,1.6009966E2,1.3974245E2,2.9665417E1,2.109022E2,2.9139386E2,8.371896E1,7.6380684E1,1.2922504E2,1.0517408E1,1.0626168E1,1.903925E1],"tree_param":{"num_deleted":"0","num_feature":"35","num_nodes":"15","size_leaf_vector":"1"}},{"base_weights":[-5.289048E-2,2.1439306E-1,-1.0767013E0,5.2124465E-1,-6.9830716E-1,-1.1381363E-2,-6.975548E-1,3.0552583E-5,8.865882E-3,-1.0222653E-2,-3.3285373E-3,-1.6045965E-3,-1.2041039E-2],"categories":[],"categories_nodes":[],"categories_segments":[],"categories_sizes":[],"default_left":[0,0,0,0,0,0,0,0,0,0,0,0,0],"id":37,"left_children":[1,3,5,7,9,-1,11,-1,-1,-1,-1,-1,-1],"loss_changes":[2.2582E2,1.8367911E2,3.185196E0,9.284412E1,1.9208366E1,0E0,6.9903564E0,0E0,0E0,0E0,0E0,0E0,0E0],"parents":[2147483647,0,0,1,1,2,2,3,3,4,4,6,6],"right_children":[2,4,6,8,10,-1,12,-1,-1,-1,-1,-1,-1],"split_conditions":[1E0,1E0,1.0533047E2,1E0,1E0,-1.1381363E-2,7.76725E3,3.0552583E-5,8.865882E-3,-1.0222653E-2,-3.3285373E-3,-1.6045965E-3,-1.2041039E-2],"split_indices":[27,26,4,12,25,0,3,0,0,0,0,0,0],"split_type":[0,0,0,0,0,0,0,0,0,0,0,0,0],"sum_hessian":[8.2337787E2,6.5354834E2,1.6982953E2,4.8942996E2,1.641184E2,1.4442567E2,2.5403852E1,2.0279776E2,2.866322E2,8.604558E1,7.8072815E1,1.2969273E1,1.2434579E1],"tree_param":{"num_deleted":"0","num_feature":"35","num_nodes":"13","size_leaf_vector":"1"}},{"base_weights":[-7.242045E-2,6.9639444E-1,-4.288293E-1,1.3098061E-1,1.3139745E0,-8.8393193E-1,5.637124E-2,4.644413E-3,-4.220649E-3,1.806277E-2,1.097954E-2,-7.1623838E-3,-1.115443E-2,-3.3856302E-3,5.2447915E-3],"categories":[],"categories_nodes":[],"categories_segments":[],"categories_sizes":[],"default_left":[0,0,0,0,0,0,0,0,0,0,0,0,0,0,0],"id":38,"left_children":[1,3,5,7,9,11,13,-1,-1,-1,-1,-1,-1,-1,-1],"loss_changes":[2.2681357E2,9.139247E1,1.2490762E2,2.5646366E1,1.133342E1,1.0530701E1,5.0945164E1,0E0,0E0,0E0,0E0,0E0,0E0,0E0,0E0],"parents":[2147483647,0,0,1,1,2,2,3,3,4,4,5,5,6,6],"right_children":[2,4,6,8,10,12,14,-1,-1,-1,-1,-1,-1,-1,-1],"split_conditions":[1.1E1,1E0,1E0,1E0,1.1705E2,1E0,1E0,4.644413E-3,-4.220649E-3,1.806277E-2,1.097954E-2,-7.1623838E-3,-1.115443E-2,-3.3856302E-3,5.2447915E-3],"split_indices":[1,12,12,13,3,27,30,0,0,0,0,0,0,0,0],"split_type":[0,0,0,0,0,0,0,0,0,0,0,0,0,0,0],"sum_hessian":[8.256593E2,2.612212E2,5.644381E2,1.3700287E2,1.2421833E2,2.908285E2,2.7360962E2,8.556897E1,5.143389E1,3.563832E1,8.858002E1,1.7103455E2,1.1979395E2,1.48554E2,1.2505562E2],"tree_param":{"num_deleted":"0","num_feature":"35","num_nodes":"15","size_leaf_vector":"1"}},{"base_weights":[-7.0547685E-2,4.944072E-1,-5.638671E-1,7.827511E-1,-5.8618754E-1,-9.6069443E-1,-1.5877761E-1,2.1848076E-3,1.0284624E-2,4.484805E-3,-9.24247E-3,-7.6263314E-3,-1.1518831E-2,4.3495352E-4,-8.912776E-3],"categories":[],"categories_nodes":[],"categories_segments":[],"categories_sizes":[],"default_left":[0,0,0,0,0,0,0,0,0,0,0,0,0,0,0],"id":39,"left_children":[1,3,5,7,9,11,13,-1,-1,-1,-1,-1,-1,-1,-1],"loss_changes":[2.2512704E2,1.17804214E2,6.915596E1,4.1052353E1,2.8361338E1,7.36145E0,3.1828243E1,0E0,0E0,0E0,0E0,0E0,0E0,0E0,0E0],"parents":[2147483647,0,0,1,1,2,2,3,3,4,4,5,5,6,6],"right_children":[2,4,6,8,10,12,14,-1,-1,-1,-1,-1,-1,-1,-1],"split_conditions":[2.3E1,1E0,1E0,1E0,2.44E1,1E0,1E0,2.1848076E-3,1.0284624E-2,4.484805E-3,-9.24247E-3,-7.6263314E-3,-1.1518831E-2,4.3495352E-4,-8.912776E-3],"split_indices":[1,13,12,28,3,27,27,0,0,0,0,0,0,0,0],"split_type":[0,0,0,0,0,0,0,0,0,0,0,0,0,0,0],"sum_hessian":[8.057659E2,3.7561044E2,4.301555E2,2.96712E2,7.8898445E1,2.1660085E2,2.1355466E2,9.05819E1,2.061301E2,1.9349762E1,5.9548683E1,1.0883866E2,1.07762184E2,1.6808122E2,4.5473423E1],"tree_param":{"num_deleted":"0","num_feature":"35","num_nodes":"15","size_leaf_vector":"1"}},{"base_weights":[-4.6161346E-2,2.1600367E-1,-1.077087E0,5.403974E-1,-7.5826776E-1,-1.1452963E0,-7.264528E-1,5.79469E-4,8.751832E-3,-1.0456011E-2,-4.136357E-3,-1.1663411E-2,-7.883892E-3,-3.1087743E-3,-1.199624E-2],"categories":[],"categories_nodes":[],"categories_segments":[],"categories_sizes":[],"default_left":[0,0,0,0,0,0,0,0,0,0,0,0,0,0,0],"id":40,"left_children":[1,3,5,7,9,11,13,-1,-1,-1,-1,-1,-1,-1,-1],"loss_changes":[2.2251552E2,2.0790398E2,3.159912E0,7.959654E1,1.5848137E1,1.1697388E-1,5.509716E0,0E0,0E0,0E0,0E0,0E0,0E0,0E0,0E0],"parents":[2147483647,0,0,1,1,2,2,3,3,4,4,5,5,6,6],"right_children":[2,4,6,8,10,12,14,-1,-1,-1,-1,-1,-1,-1,-1],"split_conditions":[1E0,1E0,1.0325E2,1E0,1E0,1E0,7.76725E3,5.79469E-4,8.751832E-3,-1.0456011E-2,-4.136357E-3,-1.1663411E-2,-7.883892E-3,-3.1087743E-3,-1.199624E-2],"split_indices":[27,26,2,12,25,30,3,0,0,0,0,0,0,0,0],"split_type":[0,0,0,0,0,0,0,0,0,0,0,0,0,0,0],"sum_hessian":[8.214394E2,6.5552856E2,1.6591083E2,4.921181E2,1.6341048E2,1.3699472E2,2.8916111E1,2.0207974E2,2.9003836E2,8.800404E1,7.5406425E1,1.2722509E2,9.769623E0,1.6277214E1,1.2638896E1],"tree_param":{"num_deleted":"0","num_feature":"35","num_nodes":"15","size_leaf_vector":"1"}},{"base_weights":[-8.445499E-2,6.5912926E-1,-4.2916209E-1,1.7043859E-1,1.2375839E0,-8.6617726E-1,2.0174694E-3,4.8950827E-3,-3.805095E-3,1.3231009E-2,3.3588326E-3,-6.778663E-3,-1.14991935E-2,3.159224E-3,-6.2058377E-3],"categories":[],"categories_nodes":[],"categories_segments":[],"categories_sizes":[],"default_left":[0,0,0,0,0,0,0,0,0,0,0,0,0,0,0],"id":41,"left_children":[1,3,5,7,9,11,13,-1,-1,-1,-1,-1,-1,-1,-1],"loss_changes":[2.1365283E2,7.443571E1,1.0729064E2,2.555235E1,8.867935E0,1.4329834E1,5.640388E1,0E0,0E0,0E0,0E0,0E0,0E0,0E0,0E0],"parents":[2147483647,0,0,1,1,2,2,3,3,4,4,5,5,6,6],"right_children":[2,4,6,8,10,12,14,-1,-1,-1,-1,-1,-1,-1,-1],"split_conditions":[1.1E1,1E0,1E0,1E0,1E0,1E0,5.5E1,4.8950827E-3,-3.805095E-3,1.3231009E-2,3.3588326E-3,-6.778663E-3,-1.14991935E-2,3.159224E-3,-6.2058377E-3],"split_indices":[1,12,12,13,15,27,1,0,0,0,0,0,0,0,0],"split_type":[0,0,0,0,0,0,0,0,0,0,0,0,0,0,0],"sum_hessian":[8.314399E2,2.6306262E2,5.6837726E2,1.4329697E2,1.1976567E2,2.817774E2,2.8659985E2,9.081496E1,5.2482002E1,1.0896419E2,1.0801485E1,1.7140811E2,1.1036927E2,1.908627E2,9.5737144E1],"tree_param":{"num_deleted":"0","num_feature":"35","num_nodes":"15","size_leaf_vector":"1"}},{"base_weights":[-4.9383078E-2,2.0753835E-1,-1.0801784E0,4.9887264E-1,-7.0807725E-1,-1.1375427E-2,-7.7875024E-1,4.356981E-4,8.2692485E-3,-1.0017365E-2,-3.6524555E-3,-2.404989E-3,-1.068231E-2],"categories":[],"categories_nodes":[],"categories_segments":[],"categories_sizes":[],"default_left":[0,0,0,0,0,0,0,0,0,0,0,0,0],"id":42,"left_children":[1,3,5,7,9,-1,11,-1,-1,-1,-1,-1,-1],"loss_changes":[2.1723265E2,1.7554584E2,1.9438324E0,7.446965E1,1.5635925E1,0E0,4.3138466E0,0E0,0E0,0E0,0E0,0E0,0E0],"parents":[2147483647,0,0,1,1,2,2,3,3,4,4,6,6],"right_children":[2,4,6,8,10,-1,12,-1,-1,-1,-1,-1,-1],"split_conditions":[1E0,1E0,1.0325E2,1E0,1E0,-1.1375427E-2,1.0925E2,4.356981E-4,8.2692485E-3,-1.0017365E-2,-3.6524555E-3,-2.404989E-3,-1.068231E-2],"split_indices":[27,26,2,12,25,0,2,0,0,0,0,0,0],"split_type":[0,0,0,0,0,0,0,0,0,0,0,0,0],"sum_hessian":[8.184149E2,6.5576654E2,1.626484E2,4.978225E2,1.5794403E2,1.3431358E2,2.833482E1,2.0895174E2,2.8887076E2,8.403781E1,7.390622E1,1.0549746E1,1.7785074E1],"tree_param":{"num_deleted":"0","num_feature":"35","num_nodes":"13","size_leaf_vector":"1"}},{"base_weights":[-5.277016E-2,2.0266147E-1,-1.0559156E0,4.9897283E-1,-7.111375E-1,-1.1274406E-2,-6.033838E-1,1.7157567E-4,8.406614E-3,-1.010734E-2,-3.4735706E-3,4.6330882E-4,-1.187085E-2],"categories":[],"categories_nodes":[],"categories_segments":[],"categories_sizes":[],"default_left":[0,0,0,0,0,0,0,0,0,0,0,0,0],"id":43,"left_children":[1,3,5,7,9,-1,11,-1,-1,-1,-1,-1,-1],"loss_changes":[2.0910902E2,1.7652525E2,4.6803284E0,8.096783E1,1.7057205E1,0E0,9.443224E0,0E0,0E0,0E0,0E0,0E0,0E0],"parents":[2147483647,0,0,1,1,2,2,3,3,4,4,6,6],"right_children":[2,4,6,8,10,-1,12,-1,-1,-1,-1,-1,-1],"split_conditions":[1E0,1E0,1.05671425E2,1E0,1E0,-1.1274406E-2,7.76725E3,1.7157567E-4,8.406614E-3,-1.010734E-2,-3.4735706E-3,4.6330882E-4,-1.187085E-2],"split_indices":[27,26,4,12,25,0,3,0,0,0,0,0,0],"split_type":[0,0,0,0,0,0,0,0,0,0,0,0,0],"sum_hessian":[8.142476E2,6.496299E2,1.6461774E2,4.909023E2,1.587276E2,1.4086234E2,2.375541E1,2.0412117E2,2.8678116E2,8.606726E1,7.266034E1,1.1677677E1,1.2077731E1],"tree_param":{"num_deleted":"0","num_feature":"35","num_nodes":"13","size_leaf_vector":"1"}},{"base_weights":[-4.6181317E-2,5.8682376E-1,-4.639025E-1,4.8248827E-2,1.1858573E0,-8.796793E-1,-3.8630135E-2,5.444217E-3,-3.9189435E-3,1.7384866E-2,1.0085311E-2,-6.9479784E-3,-1.110584E-2,-3.96486E-3,4.132469E-3],"categories":[],"categories_nodes":[],"categories_segments":[],"categories_sizes":[],"default_left":[0,0,0,0,0,0,0,0,0,0,0,0,0,0,0],"id":44,"left_children":[1,3,5,7,9,11,13,-1,-1,-1,-1,-1,-1,-1,-1],"loss_changes":[2.1459557E2,1.0404612E2,8.6406525E1,3.7547733E1,1.3212723E1,9.779068E0,3.9413216E1,0E0,0E0,0E0,0E0,0E0,0E0,0E0,0E0],"parents":[2147483647,0,0,1,1,2,2,3,3,4,4,5,5,6,6],"right_children":[2,4,6,8,10,12,14,-1,-1,-1,-1,-1,-1,-1,-1],"split_conditions":[1.6E1,1E0,1E0,4E0,2E0,1E0,1E0,5.444217E-3,-3.9189435E-3,1.7384866E-2,1.0085311E-2,-6.9479784E-3,-1.110584E-2,-3.96486E-3,4.132469E-3],"split_indices":[1,12,12,1,1,27,30,0,0,0,0,0,0,0,0],"split_type":[0,0,0,0,0,0,0,0,0,0,0,0,0,0,0],"sum_hessian":[8.0954254E2,3.216765E2,4.8786603E2,1.6995505E2,1.5172147E2,2.4614676E2,2.4171927E2,7.9781044E1,9.0174E1,3.471859E1,1.1700288E2,1.3892274E2,1.07224014E2,1.3496152E2,1.0675775E2],"tree_param":{"num_deleted":"0","num_feature":"35","num_nodes":"15","size_leaf_vector":"1"}},{"base_weights":[-5.9866954E-2,1.8545832E-1,-1.0426346E0,4.651985E-1,-6.95457E-1,-1.1186963E0,-6.0039335E-1,-2.8969295E-4,8.109405E-3,-1.04415715E-2,-2.9218302E-3,-1.1293784E-2,-5.232331E-3,1.0898491E-4,-1.1861603E-2],"categories":[],"categories_nodes":[],"categories_segments":[],"categories_sizes":[],"default_left":[0,0,0,0,0,0,0,0,0,0,0,0,0,0,0],"id":45,"left_children":[1,3,5,7,9,11,13,-1,-1,-1,-1,-1,-1,-1,-1],"loss_changes":[1.9699962E2,1.6150623E2,4.818512E0,8.494361E1,2.1919624E1,2.875061E-1,9.362382E0,0E0,0E0,0E0,0E0,0E0,0E0,0E0,0E0],"parents":[2147483647,0,0,1,1,2,2,3,3,4,4,5,5,6,6],"right_children":[2,4,6,8,10,12,14,-1,-1,-1,-1,-1,-1,-1,-1],"split_conditions":[1E0,1E0,1.05671425E2,1E0,1E0,7.22745E3,7.76725E3,-2.8969295E-4,8.109405E-3,-1.04415715E-2,-2.9218302E-3,-1.1293784E-2,-5.232331E-3,1.0898491E-4,-1.1861603E-2],"split_indices":[27,26,4,12,25,3,3,0,0,0,0,0,0,0,0],"split_type":[0,0,0,0,0,0,0,0,0,0,0,0,0,0,0],"sum_hessian":[8.1529236E2,6.530778E2,1.6221452E2,4.9603177E2,1.5704608E2,1.3710416E2,2.5110357E1,2.0456454E2,2.9146722E2,8.33695E1,7.367658E1,1.3380714E2,3.2970243E0,1.2767698E1,1.234266E1],"tree_param":{"num_deleted":"0","num_feature":"35","num_nodes":"15","size_leaf_vector":"1"}},{"base_weights":[-6.762528E-2,6.6951305E-1,-4.064426E-1,9.442661E-1,-3.7758207E-1,-8.538949E-1,4.142899E-2,1.1012568E-2,5.7237264E-4,6.337794E-3,-1.0033681E-2,-6.7562303E-3,-1.11175245E-2,-3.4737517E-3,4.8214924E-3],"categories":[],"categories_nodes":[],"categories_segments":[],"categories_sizes":[],"default_left":[0,0,0,0,0,0,0,0,0,0,0,0,0,0,0],"id":46,"left_children":[1,3,5,7,9,11,13,-1,-1,-1,-1,-1,-1,-1,-1],"loss_changes":[2.0498141E2,7.47197E1,1.1269253E2,2.848993E1,3.5091442E1,1.21779175E1,4.8472347E1,0E0,0E0,0E0,0E0,0E0,0E0,0E0,0E0],"parents":[2147483647,0,0,1,1,2,2,3,3,4,4,5,5,6,6],"right_children":[2,4,6,8,10,12,14,-1,-1,-1,-1,-1,-1,-1,-1],"split_conditions":[1.1E1,1E0,1E0,1E0,2.44E1,1E0,1E0,1.1012568E-2,5.7237264E-4,6.337794E-3,-1.0033681E-2,-6.7562303E-3,-1.11175245E-2,-3.4737517E-3,4.8214924E-3],"split_indices":[1,13,12,15,3,27,30,0,0,0,0,0,0,0,0],"split_type":[0,0,0,0,0,0,0,0,0,0,0,0,0,0,0],"sum_hessian":[8.1863965E2,2.574814E2,5.611582E2,2.0404036E2,5.3441063E1,2.8025702E2,2.8090118E2,1.7315332E2,3.0887045E1,2.0422522E1,3.3018543E1,1.6783981E2,1.124172E2,1.4935327E2,1.3154791E2],"tree_param":{"num_deleted":"0","num_feature":"35","num_nodes":"15","size_leaf_vector":"1"}},{"base_weights":[-5.468426E-2,1.773796E-1,-1.0269809E0,4.6019644E-1,-7.149402E-1,-1.090378E-2,-7.1756065E-1,4.1418627E-4,7.6361713E-3,-1.005078E-2,-3.8590778E-3,-3.3674038E-3,-1.1813853E-2],"categories":[],"categories_nodes":[],"categories_segments":[],"categories_sizes":[],"default_left":[0,0,0,0,0,0,0,0,0,0,0,0,0],"id":47,"left_children":[1,3,5,7,9,-1,11,-1,-1,-1,-1,-1,-1],"loss_changes":[1.8589218E2,1.6823035E2,2.3314667E0,6.423893E1,1.4935326E1,0E0,4.886718E0,0E0,0E0,0E0,0E0,0E0,0E0],"parents":[2147483647,0,0,1,1,2,2,3,3,4,4,6,6],"right_children":[2,4,6,8,10,-1,12,-1,-1,-1,-1,-1,-1],"split_conditions":[1E0,1E0,1.0325E2,1E0,1E0,-1.090378E-2,7.76725E3,4.1418627E-4,7.6361713E-3,-1.005078E-2,-3.8590778E-3,-3.3674038E-3,-1.1813853E-2],"split_indices":[27,26,2,12,25,0,3,0,0,0,0,0,0],"split_type":[0,0,0,0,0,0,0,0,0,0,0,0,0],"sum_hessian":[8.220554E2,6.643166E2,1.5773885E2,5.0480508E2,1.5951149E2,1.288208E2,2.8918047E1,2.1256364E2,2.9224142E2,8.367391E1,7.5837585E1,1.6827742E1,1.2090304E1],"tree_param":{"num_deleted":"0","num_feature":"35","num_nodes":"13","size_leaf_vector":"1"}},{"base_weights":[-2.6354061E-2,-4.1318795E-1,6.088063E-1,4.745506E-1,-6.1584455E-1,9.1659427E-1,7.761965E-2,8.476757E-3,-1.6993855E-3,-8.795566E-3,-1.9442909E-3,3.2209768E-3,1.1254479E-2,-6.111778E-3,3.3944463E-3],"categories":[],"categories_nodes":[],"categories_segments":[],"categories_sizes":[],"default_left":[0,0,0,0,0,0,0,0,0,0,0,0,0,0,0],"id":48,"left_children":[1,3,5,7,9,11,13,-1,-1,-1,-1,-1,-1,-1,-1],"loss_changes":[2.0324838E2,9.277604E1,5.112262E1,2.3255465E1,4.6388992E1,2.4241516E1,2.1121351E1,0E0,0E0,0E0,0E0,0E0,0E0,0E0,0E0],"parents":[2147483647,0,0,1,1,2,2,3,3,4,4,5,5,6,6],"right_children":[2,4,6,8,10,12,14,-1,-1,-1,-1,-1,-1,-1,-1],"split_conditions":[1E0,6E0,2.7E1,1E0,1E0,1E0,1E0,8.476757E-3,-1.6993855E-3,-8.795566E-3,-1.9442909E-3,3.2209768E-3,1.1254479E-2,-6.111778E-3,3.3944463E-3],"split_indices":[30,1,1,13,12,28,12,0,0,0,0,0,0,0,0],"split_type":[0,0,0,0,0,0,0,0,0,0,0,0,0,0,0],"sum_hessian":[8.251927E2,5.1306714E2,3.1212555E2,9.51073E1,4.179598E2,1.9715915E2,1.1496641E2,6.003496E1,3.5072334E1,2.564144E2,1.6154541E2,5.191805E1,1.4524109E2,3.12971E1,8.366931E1],"tree_param":{"num_deleted":"0","num_feature":"35","num_nodes":"15","size_leaf_vector":"1"}},{"base_weights":[-2.289677E-2,2.2225721E-1,-1.0318313E0,5.078725E-1,-6.765378E-1,-1.1089987E-2,-6.7959756E-1,1.5995265E-3,8.476901E-3,-1.0195758E-2,-2.9638445E-3,-3.1194761E-3,-1.1767248E-2],"categories":[],"categories_nodes":[],"categories_segments":[],"categories_sizes":[],"default_left":[0,0,0,0,0,0,0,0,0,0,0,0,0],"id":49,"left_children":[1,3,5,7,9,-1,11,-1,-1,-1,-1,-1,-1],"loss_changes":[2.0287291E2,1.6975772E2,3.6043243E0,5.9141388E1,2.0507057E1,0E0,5.371128E0,0E0,0E0,0E0,0E0,0E0,0E0],"parents":[2147483647,0,0,1,1,2,2,3,3,4,4,6,6],"right_children":[2,4,6,8,10,-1,12,-1,-1,-1,-1,-1,-1],"split_conditions":[1E0,1E0,1.0325E2,1E0,1E0,-1.1089987E-2,7.76725E3,1.5995265E-3,8.476901E-3,-1.0195758E-2,-2.9638445E-3,-3.1194761E-3,-1.1767248E-2],"split_indices":[27,26,2,30,25,0,3,0,0,0,0,0,0],"split_type":[0,0,0,0,0,0,0,0,0,0,0,0,0],"sum_hessian":[8.182772E2,6.589446E2,1.5933266E2,5.0037308E2,1.585715E2,1.2893668E2,3.0395979E1,2.4796576E2,2.5240732E2,8.247066E1,7.6100845E1,1.840907E1,1.1986909E1],"tree_param":{"num_deleted":"0","num_feature":"35","num_nodes":"13","size_leaf_vector":"1"}},{"base_weights":[-5.2914407E-2,4.552681E-1,-5.1743084E-1,-9.132338E-3,9.7736853E-1,-9.141545E-1,-1.4026868E-1,5.5910028E-3,-3.7646422E-3,1.2560068E-2,6.118585E-3,-9.666128E-3,-3.281083E-3,4.9938576E-4,-8.804705E-3],"categories":[],"categories_nodes":[],"categories_segments":[],"categories_sizes":[],"default_left":[0,0,0,0,0,0,0,0,0,0,0,0,0,0,0],"id":50,"left_children":[1,3,5,7,9,11,13,-1,-1,-1,-1,-1,-1,-1,-1],"loss_changes":[1.9261671E2,9.450292E1,6.3650597E1,4.346983E1,1.791745E1,6.0636597E0,3.0974695E1,0E0,0E0,0E0,0E0,0E0,0E0,0E0,0E0],"parents":[2147483647,0,0,1,1,2,2,3,3,4,4,5,5,6,6],"right_children":[2,4,6,8,10,12,14,-1,-1,-1,-1,-1,-1,-1,-1],"split_conditions":[2.3E1,1E0,1E0,4E0,9E0,1E0,1E0,5.5910028E-3,-3.7646422E-3,1.2560068E-2,6.118585E-3,-9.666128E-3,-3.281083E-3,4.9938576E-4,-8.804705E-3],"split_indices":[1,12,12,1,1,0,27,0,0,0,0,0,0,0,0],"split_type":[0,0,0,0,0,0,0,0,0,0,0,0,0,0,0],"sum_hessian":[8.139702E2,3.8872437E2,4.2524585E2,2.0625032E2,1.8247404E2,2.0655453E2,2.186913E2,8.0775345E1,1.2547497E2,1.0215907E2,8.0314964E1,1.889884E2,1.7566143E1,1.7472525E2,4.3966045E1],"tree_param":{"num_deleted":"0","num_feature":"35","num_nodes":"15","size_leaf_vector":"1"}},{"base_weights":[-6.351586E-2,1.706298E-1,-1.0449167E0,4.4229546E-1,-6.8880457E-1,-1.0950518E0,-7.1380395E-1,-1.2975487E-4,7.636337E-3,-9.649528E-3,-3.7611483E-3,-1.10548735E-2,-5.2576703E-3,-1.3900722E-3,-1.17053995E-2],"categories":[],"categories_nodes":[],"categories_segments":[],"categories_sizes":[],"default_left":[0,0,0,0,0,0,0,0,0,0,0,0,0,0,0],"id":51,"left_children":[1,3,5,7,9,11,13,-1,-1,-1,-1,-1,-1,-1,-1],"loss_changes":[1.8530273E2,1.523689E2,1.7967834E0,7.249653E1,1.3178169E1,2.0904541E-1,5.953661E0,0E0,0E0,0E0,0E0,0E0,0E0,0E0,0E0],"parents":[2147483647,0,0,1,1,2,2,3,3,4,4,5,5,6,6],"right_children":[2,4,6,8,10,12,14,-1,-1,-1,-1,-1,-1,-1,-1],"split_conditions":[1E0,1E0,1.059E2,1E0,1E0,7.22745E3,7.76725E3,-1.2975487E-4,7.636337E-3,-9.649528E-3,-3.7611483E-3,-1.10548735E-2,-5.2576703E-3,-1.3900722E-3,-1.17053995E-2],"split_indices":[27,26,2,12,25,3,3,0,0,0,0,0,0,0,0],"split_type":[0,0,0,0,0,0,0,0,0,0,0,0,0,0,0],"sum_hessian":[8.046218E2,6.5029785E2,1.5432394E2,4.9447925E2,1.5581865E2,1.3202617E2,2.2297775E1,2.0499817E2,2.8948108E2,8.1636406E1,7.4182236E1,1.2872462E2,3.3015485E0,1.045041E1,1.1847364E1],"tree_param":{"num_deleted":"0","num_feature":"35","num_nodes":"15","size_leaf_vector":"1"}},{"base_weights":[-3.9947204E-2,-4.1672915E-1,5.8710724E-1,3.9670727E-1,-6.0946214E-1,8.923815E-1,4.7812983E-2,7.262135E-3,-2.462204E-3,-8.83026E-3,-1.8044974E-3,2.6022946E-3,1.1056122E-2,-5.313636E-3,2.5987085E-3],"categories":[],"categories_nodes":[],"categories_segments":[],"categories_sizes":[],"default_left":[0,0,0,0,0,0,0,0,0,0,0,0,0,0,0],"id":52,"left_children":[1,3,5,7,9,11,13,-1,-1,-1,-1,-1,-1,-1,-1],"loss_changes":[1.930587E2,8.025527E1,5.0455376E1,2.1017805E1,4.831137E1,2.6105682E1,1.3884789E1,0E0,0E0,0E0,0E0,0E0,0E0,0E0,0E0],"parents":[2147483647,0,0,1,1,2,2,3,3,4,4,5,5,6,6],"right_children":[2,4,6,8,10,12,14,-1,-1,-1,-1,-1,-1,-1,-1],"split_conditions":[1E0,6E0,2.7E1,1E0,1E0,1E0,1E0,7.262135E-3,-2.462204E-3,-8.83026E-3,-1.8044974E-3,2.6022946E-3,1.1056122E-2,-5.313636E-3,2.5987085E-3],"split_indices":[30,1,1,13,12,28,12,0,0,0,0,0,0,0,0],"split_type":[0,0,0,0,0,0,0,0,0,0,0,0,0,0,0],"sum_hessian":[8.1509985E2,5.0936816E2,3.0573166E2,9.736737E1,4.120008E2,1.948051E2,1.1092657E2,6.428909E1,3.3078278E1,2.5093283E2,1.6106796E2,4.969571E1,1.4510939E2,2.9325752E1,8.1600815E1],"tree_param":{"num_deleted":"0","num_feature":"35","num_nodes":"15","size_leaf_vector":"1"}},{"base_weights":[-5.015657E-2,6.528106E-1,-3.8867417E-1,9.263545E-1,-4.6471727E-1,-8.179814E-1,2.5199018E-2,1.06510725E-2,9.526076E-4,3.4792903E-3,-9.604929E-3,-6.509832E-3,-1.070722E-2,1.9926433E-3,-8.990506E-3],"categories":[],"categories_nodes":[],"categories_segments":[],"categories_sizes":[],"default_left":[0,0,0,0,0,0,0,0,0,0,0,0,0,0,0],"id":53,"left_children":[1,3,5,7,9,11,13,-1,-1,-1,-1,-1,-1,-1,-1],"loss_changes":[1.9545892E2,8.2050446E1,9.8508766E1,2.4672028E1,2.1755634E1,1.0787964E1,4.57396E1,0E0,0E0,0E0,0E0,0E0,0E0,0E0,0E0],"parents":[2147483647,0,0,1,1,2,2,3,3,4,4,5,5,6,6],"right_children":[2,4,6,8,10,12,14,-1,-1,-1,-1,-1,-1,-1,-1],"split_conditions":[1.1E1,1E0,1E0,1E0,2.44E1,1E0,1E0,1.06510725E-2,9.526076E-4,3.4792903E-3,-9.604929E-3,-6.509832E-3,-1.070722E-2,1.9926433E-3,-8.990506E-3],"split_indices":[1,13,12,15,3,27,27,0,0,0,0,0,0,0,0],"split_type":[0,0,0,0,0,0,0,0,0,0,0,0,0,0,0],"sum_hessian":[8.1930444E2,2.6599976E2,5.533047E2,2.138303E2,5.2169453E1,2.711091E2,2.8219562E2,1.8299702E2,3.0833294E1,1.9880583E1,3.228887E1,1.6539809E2,1.05711006E2,2.3813222E2,4.4063393E1],"tree_param":{"num_deleted":"0","num_feature":"35","num_nodes":"15","size_leaf_vector":"1"}},{"base_weights":[-2.7199242E-2,2.0095243E-1,-1.0161457E0,4.5972028E-1,-6.234335E-1,-1.0911548E0,-5.7021004E-1,1.0347969E-3,8.104267E-3,-9.47595E-3,-2.6526994E-3,-1.1017059E-2,-5.613332E-3,1.354181E-3,-1.0485566E-2],"categories":[],"categories_nodes":[],"categories_segments":[],"categories_sizes":[],"default_left":[0,0,0,0,0,0,0,0,0,0,0,0,0,0,0],"id":54,"left_children":[1,3,5,7,9,11,13,-1,-1,-1,-1,-1,-1,-1,-1],"loss_changes":[1.8385509E2,1.4155098E2,4.4869843E0,6.2955948E1,1.81656E1,1.0638428E-1,8.272433E0,0E0,0E0,0E0,0E0,0E0,0E0,0E0,0E0],"parents":[2147483647,0,0,1,1,2,2,3,3,4,4,5,5,6,6],"right_children":[2,4,6,8,10,12,14,-1,-1,-1,-1,-1,-1,-1,-1],"split_conditions":[1E0,1E0,1.0533047E2,1E0,1E0,7.22745E3,1.1005E2,1.0347969E-3,8.104267E-3,-9.47595E-3,-2.6526994E-3,-1.1017059E-2,-5.613332E-3,1.354181E-3,-1.0485566E-2],"split_indices":[27,26,4,30,25,3,2,0,0,0,0,0,0,0,0],"split_type":[0,0,0,0,0,0,0,0,0,0,0,0,0,0,0],"sum_hessian":[8.1294794E2,6.6120386E2,1.5174408E2,5.0357745E2,1.576264E2,1.2865637E2,2.3087708E1,2.504601E2,2.5311734E2,8.187682E1,7.574959E1,1.2508599E2,3.5703845E0,9.617481E0,1.3470226E1],"tree_param":{"num_deleted":"0","num_feature":"35","num_nodes":"15","size_leaf_vector":"1"}},{"base_weights":[-3.9866876E-2,5.2285576E-1,-4.514792E-1,7.6972586E-1,-4.860615E-1,-8.618545E-1,-5.5426277E-2,9.3113575E-3,-3.68198E-4,4.5799334E-3,-8.699211E-3,-9.564129E-3,-3.9290558E-3,2.126961E-3,-5.0534806E-3],"categories":[],"categories_nodes":[],"categories_segments":[],"categories_sizes":[],"default_left":[0,0,0,0,0,0,0,0,0,0,0,0,0,0,0],"id":55,"left_children":[1,3,5,7,9,11,13,-1,-1,-1,-1,-1,-1,-1,-1],"loss_changes":[1.8630821E2,8.501795E1,7.544775E1,3.5628983E1,2.4830456E1,9.736969E0,2.8751348E1,0E0,0E0,0E0,0E0,0E0,0E0,0E0,0E0],"parents":[2147483647,0,0,1,1,2,2,3,3,4,4,5,5,6,6],"right_children":[2,4,6,8,10,12,14,-1,-1,-1,-1,-1,-1,-1,-1],"split_conditions":[1.7E1,1E0,1E0,1E0,2.44E1,1E0,5.5E1,9.3113575E-3,-3.68198E-4,4.5799334E-3,-8.699211E-3,-9.564129E-3,-3.9290558E-3,2.126961E-3,-5.0534806E-3],"split_indices":[1,13,12,15,3,30,1,0,0,0,0,0,0,0,0],"split_type":[0,0,0,0,0,0,0,0,0,0,0,0,0,0,0],"sum_hessian":[8.023386E2,3.388375E2,4.635011E2,2.724173E2,6.6420204E1,2.2705698E2,2.3644412E2,2.2686205E2,4.555524E1,1.914423E1,4.7275974E1,1.8809103E2,3.8965954E1,1.4848473E2,8.79594E1],"tree_param":{"num_deleted":"0","num_feature":"35","num_nodes":"15","size_leaf_vector":"1"}},{"base_weights":[-1.6723458E-2,2.1591993E-1,-1.0078889E0,4.831717E-1,-6.6237044E-1,-1.0989004E0,-5.662003E-1,6.712255E-4,7.7536944E-3,-9.900594E-3,-2.8312071E-3,-1.1211608E-2,-7.4937753E-3,-8.471881E-4,-1.1607826E-2],"categories":[],"categories_nodes":[],"categories_segments":[],"categories_sizes":[],"default_left":[0,0,0,0,0,0,0,0,0,0,0,0,0,0,0],"id":56,"left_children":[1,3,5,7,9,11,13,-1,-1,-1,-1,-1,-1,-1,-1],"loss_changes":[1.8686249E2,1.5438919E2,5.5703125E0,6.1197678E1,1.8802757E1,1.4533997E-1,8.026801E0,0E0,0E0,0E0,0E0,0E0,0E0,0E0,0E0],"parents":[2147483647,0,0,1,1,2,2,3,3,4,4,5,5,6,6],"right_children":[2,4,6,8,10,12,14,-1,-1,-1,-1,-1,-1,-1,-1],"split_conditions":[1E0,1E0,1.0325E2,1E0,1E0,1E0,7.76725E3,6.712255E-4,7.7536944E-3,-9.900594E-3,-2.8312071E-3,-1.1211608E-2,-7.4937753E-3,-8.471881E-4,-1.1607826E-2],"split_indices":[27,26,2,12,25,30,3,0,0,0,0,0,0,0,0],"split_type":[0,0,0,0,0,0,0,0,0,0,0,0,0,0,0],"sum_hessian":[8.0842975E2,6.553825E2,1.5304726E2,5.0282852E2,1.5255399E2,1.256655E2,2.7381758E1,2.0795671E2,2.9487183E2,8.097626E1,7.157772E1,1.1606584E2,9.599657E0,1.5761156E1,1.1620603E1],"tree_param":{"num_deleted":"0","num_feature":"35","num_nodes":"15","size_leaf_vector":"1"}},{"base_weights":[-3.164345E-2,-3.9627594E-1,5.5699056E-1,2.1003614E-1,-6.6206646E-1,8.6660665E-1,9.736755E-2,-1.6821064E-3,1.14550805E-2,-8.851982E-3,-3.3940007E-3,1.4210221E-2,6.886925E-3,-5.6104087E-3,3.434862E-3],"categories":[],"categories_nodes":[],"categories_segments":[],"categories_sizes":[],"default_left":[0,0,0,0,0,0,0,0,0,0,0,0,0,0,0],"id":57,"left_children":[1,3,5,7,9,11,13,-1,-1,-1,-1,-1,-1,-1,-1],"loss_changes":[1.7346434E2,8.0553116E1,4.391101E1,5.4272705E1,2.4693909E1,1.722969E1,2.0539608E1,0E0,0E0,0E0,0E0,0E0,0E0,0E0,0E0],"parents":[2147483647,0,0,1,1,2,2,3,3,4,4,5,5,6,6],"right_children":[2,4,6,8,10,12,14,-1,-1,-1,-1,-1,-1,-1,-1],"split_conditions":[1E0,1.3E1,2.3E1,1E0,1E0,2E0,1E0,-1.6821064E-3,1.14550805E-2,-8.851982E-3,-3.3940007E-3,1.4210221E-2,6.886925E-3,-5.6104087E-3,3.434862E-3],"split_indices":[30,1,1,12,12,1,12,0,0,0,0,0,0,0,0],"split_type":[0,0,0,0,0,0,0,0,0,0,0,0,0,0,0],"sum_hessian":[8.0615424E2,4.979952E2,3.08159E2,1.5183783E2,3.4615738E2,1.83597E2,1.24562004E2,1.0870461E2,4.3133213E1,2.0361159E2,1.4254579E2,4.290607E1,1.4069093E2,3.3544724E1,9.101727E1],"tree_param":{"num_deleted":"0","num_feature":"35","num_nodes":"15","size_leaf_vector":"1"}},{"base_weights":[-4.498375E-2,1.8465804E-1,-1.0447166E0,4.3225724E-1,-6.507383E-1,-1.1148403E0,-7.149933E-1,2.7463114E-4,7.1800593E-3,-9.236288E-3,-3.571116E-3,-1.1391002E-2,-7.7491705E-3,-3.4954404E-3,-1.156563E-2],"categories":[],"categories_nodes":[],"categories_segments":[],"categories_sizes":[],"default_left":[0,0,0,0,0,0,0,0,0,0,0,0,0,0,0],"id":58,"left_children":[1,3,5,7,9,11,13,-1,-1,-1,-1,-1,-1,-1,-1],"loss_changes":[1.8302376E2,1.3441121E2,2.6458893E0,5.7908432E1,1.1581448E1,1.1515808E-1,4.259878E0,0E0,0E0,0E0,0E0,0E0,0E0,0E0,0E0],"parents":[2147483647,0,0,1,1,2,2,3,3,4,4,5,5,6,6],"right_children":[2,4,6,8,10,12,14,-1,-1,-1,-1,-1,-1,-1,-1],"split_conditions":[1E0,1E0,1.0325E2,1E0,1E0,1E0,7.76725E3,2.7463114E-4,7.1800593E-3,-9.236288E-3,-3.571116E-3,-1.1391002E-2,-7.7491705E-3,-3.4954404E-3,-1.156563E-2],"split_indices":[27,26,2,12,25,30,3,0,0,0,0,0,0,0,0],"split_type":[0,0,0,0,0,0,0,0,0,0,0,0,0,0,0],"sum_hessian":[7.9536957E2,6.4746106E2,1.4790855E2,4.998079E2,1.4765315E2,1.2000535E2,2.7903196E1,2.0727559E2,2.925323E2,7.541676E1,7.223639E1,1.098168E2,1.0188551E1,1.6247847E1,1.165535E1],"tree_param":{"num_deleted":"0","num_feature":"35","num_nodes":"15","size_leaf_vector":"1"}},{"base_weights":[-7.094756E-2,-4.2320797E-1,5.000638E-1,3.8789776E-1,-6.073218E-1,8.5034406E-1,-8.780819E-2,-3.2723992E-4,8.087671E-3,-8.988386E-3,-1.6281375E-3,9.214547E-3,-7.4239806E-3,1.3713823E-3,-5.773696E-3],"categories":[],"categories_nodes":[],"categories_segments":[],"categories_sizes":[],"default_left":[0,0,0,0,0,0,0,0,0,0,0,0,0,0,0],"id":59,"left_children":[1,3,5,7,9,11,13,-1,-1,-1,-1,-1,-1,-1,-1],"loss_changes":[1.6188329E2,7.455071E1,6.331685E1,1.6431957E1,5.245932E1,2.249173E1,1.2807066E1,0E0,0E0,0E0,0E0,0E0,0E0,0E0,0E0],"parents":[2147483647,0,0,1,1,2,2,3,3,4,4,5,5,6,6],"right_children":[2,4,6,8,10,12,14,-1,-1,-1,-1,-1,-1,-1,-1],"split_conditions":[1E0,6E0,2.7E1,1E0,1E0,1E0,1E0,-3.2723992E-4,8.087671E-3,-8.988386E-3,-1.6281375E-3,9.214547E-3,-7.4239806E-3,1.3713823E-3,-5.773696E-3],"split_indices":[30,1,1,28,12,13,15,0,0,0,0,0,0,0,0],"split_type":[0,0,0,0,0,0,0,0,0,0,0,0,0,0,0],"sum_hessian":[8.0275806E2,4.966379E2,3.0612015E2,9.1672356E1,4.0496555E2,1.915435E2,1.1457663E2,4.631093E1,4.536143E1,2.4395386E2,1.610117E2,1.8376067E2,7.7828393E0,7.899805E1,3.557859E1],"tree_param":{"num_deleted":"0","num_feature":"35","num_nodes":"15","size_leaf_vector":"1"}},{"base_weights":[-4.0196817E-2,1.8044753E-1,-1.003017E0,4.2501464E-1,-6.4462495E-1,-1.0858703E0,-6.2808144E-1,3.0107808E-4,7.029131E-3,-9.695759E-3,-2.846869E-3,-1.1086349E-2,-7.359386E-3,-2.2589408E-3,-1.1548213E-2],"categories":[],"categories_nodes":[],"categories_segments":[],"categories_sizes":[],"default_left":[0,0,0,0,0,0,0,0,0,0,0,0,0,0,0],"id":60,"left_children":[1,3,5,7,9,11,13,-1,-1,-1,-1,-1,-1,-1,-1],"loss_changes":[1.7197684E2,1.3320117E2,4.0062866E0,5.5809624E1,1.7387363E1,1.5785217E-1,6.0281982E0,0E0,0E0,0E0,0E0,0E0,0E0,0E0,0E0],"parents":[2147483647,0,0,1,1,2,2,3,3,4,4,5,5,6,6],"right_children":[2,4,6,8,10,12,14,-1,-1,-1,-1,-1,-1,-1,-1],"split_conditions":[1E0,1E0,1.0325E2,1E0,1E0,1E0,7.76725E3,3.0107808E-4,7.029131E-3,-9.695759E-3,-2.846869E-3,-1.1086349E-2,-7.359386E-3,-2.2589408E-3,-1.1548213E-2],"split_indices":[27,26,2,12,25,30,3,0,0,0,0,0,0,0,0],"split_type":[0,0,0,0,0,0,0,0,0,0,0,0,0,0,0],"sum_hessian":[8.0767615E2,6.5775464E2,1.4992154E2,5.0773672E2,1.500179E2,1.2123486E2,2.8686676E1,2.101756E2,2.9756113E2,7.7950615E1,7.206729E1,1.1179399E2,9.44087E0,1.707674E1,1.1609936E1],"tree_param":{"num_deleted":"0","num_feature":"35","num_nodes":"15","size_leaf_vector":"1"}},{"base_weights":[-3.727214E-2,4.3500724E-1,-4.8633817E-1,6.6950154E-1,-5.4570466E-1,-8.9104986E-1,-1.2070479E-1,1.2452037E-2,4.792853E-3,4.2349226E-3,-8.724233E-3,-9.409526E-3,-3.5626276E-3,1.8405315E-3,-5.616591E-3],"categories":[],"categories_nodes":[],"categories_segments":[],"categories_sizes":[],"default_left":[0,0,0,0,0,0,0,0,0,0,0,0,0,0,0],"id":61,"left_children":[1,3,5,7,9,11,13,-1,-1,-1,-1,-1,-1,-1,-1],"loss_changes":[1.7126315E2,9.0889015E1,6.1139015E1,3.424005E1,2.459623E1,4.9033203E0,2.9480097E1,0E0,0E0,0E0,0E0,0E0,0E0,0E0,0E0],"parents":[2147483647,0,0,1,1,2,2,3,3,4,4,5,5,6,6],"right_children":[2,4,6,8,10,12,14,-1,-1,-1,-1,-1,-1,-1,-1],"split_conditions":[2.3E1,1E0,1E0,1.095E2,2.44E1,1E0,5.5E1,1.2452037E-2,4.792853E-3,4.2349226E-3,-8.724233E-3,-9.409526E-3,-3.5626276E-3,1.8405315E-3,-5.616591E-3],"split_indices":[1,13,12,3,3,0,1,0,0,0,0,0,0,0,0],"split_type":[0,0,0,0,0,0,0,0,0,0,0,0,0,0,0],"sum_hessian":[8.055252E2,3.9263025E2,4.12895E2,3.171218E2,7.550845E1,1.952927E2,2.176023E2,7.7379944E1,2.3974185E2,1.8962074E1,5.6546375E1,1.7792996E2,1.7362732E1,1.2901701E2,8.858528E1],"tree_param":{"num_deleted":"0","num_feature":"35","num_nodes":"15","size_leaf_vector":"1"}},{"base_weights":[-4.3146335E-2,1.8282858E-1,-1.0342488E0,4.2898473E-1,-6.295721E-1,-1.0878539E-2,-6.902435E-1,1.9532003E-4,7.147059E-3,-9.766454E-3,-2.5568823E-3,-1.8381511E-3,-1.1411102E-2],"categories":[],"categories_nodes":[],"categories_segments":[],"categories_sizes":[],"default_left":[0,0,0,0,0,0,0,0,0,0,0,0,0],"id":62,"left_children":[1,3,5,7,9,-1,11,-1,-1,-1,-1,-1,-1],"loss_changes":[1.7803882E2,1.2975708E2,1.9707642E0,5.8191925E1,1.9341747E1,0E0,4.9582787E0,0E0,0E0,0E0,0E0,0E0,0E0],"parents":[2147483647,0,0,1,1,2,2,3,3,4,4,6,6],"right_children":[2,4,6,8,10,-1,12,-1,-1,-1,-1,-1,-1],"split_conditions":[1E0,1E0,1.05671425E2,1E0,1E0,-1.0878539E-2,7.76725E3,1.9532003E-4,7.147059E-3,-9.766454E-3,-2.5568823E-3,-1.8381511E-3,-1.1411102E-2],"split_indices":[27,26,4,12,25,0,3,0,0,0,0,0,0],"split_type":[0,0,0,0,0,0,0,0,0,0,0,0,0],"sum_hessian":[7.930987E2,6.4650806E2,1.4659062E2,4.9653168E2,1.4997638E2,1.2495674E2,2.1633873E1,2.0451697E2,2.920147E2,7.694075E1,7.303563E1,1.0852115E1,1.0781758E1],"tree_param":{"num_deleted":"0","num_feature":"35","num_nodes":"13","size_leaf_vector":"1"}},{"base_weights":[-6.402779E-2,1.4938089E-1,-1.0113206E0,3.849563E-1,-6.2589973E-1,-1.0954955E-2,-6.090588E-1,-4.0052074E-4,6.7980355E-3,-9.508572E-3,-2.736408E-3,-2.0692158E-3,-1.1377699E-2],"categories":[],"categories_nodes":[],"categories_segments":[],"categories_sizes":[],"default_left":[0,0,0,0,0,0,0,0,0,0,0,0,0],"id":63,"left_children":[1,3,5,7,9,-1,11,-1,-1,-1,-1,-1,-1],"loss_changes":[1.6113416E2,1.1909618E2,4.294693E0,6.2649963E1,1.7143745E1,0E0,5.6348515E0,0E0,0E0,0E0,0E0,0E0,0E0],"parents":[2147483647,0,0,1,1,2,2,3,3,4,4,6,6],"right_children":[2,4,6,8,10,-1,12,-1,-1,-1,-1,-1,-1],"split_conditions":[1E0,1E0,1.0325E2,1E0,1E0,-1.0954955E-2,7.76725E3,-4.0052074E-4,6.7980355E-3,-9.508572E-3,-2.736408E-3,-2.0692158E-3,-1.1377699E-2],"split_indices":[27,26,2,12,25,0,3,0,0,0,0,0,0],"split_type":[0,0,0,0,0,0,0,0,0,0,0,0,0],"sum_hessian":[7.953131E2,6.497728E2,1.4554027E2,4.9873236E2,1.5104048E2,1.1893029E2,2.6609982E1,2.0463084E2,2.9410153E2,7.768087E1,7.335962E1,1.5904444E1,1.0705538E1],"tree_param":{"num_deleted":"0","num_feature":"35","num_nodes":"13","size_leaf_vector":"1"}},{"base_weights":[-3.9499782E-2,6.194527E-1,-3.6214626E-1,8.7605053E-1,-4.1539142E-1,-7.6388824E-1,1.1107387E-2,1.0215704E-2,2.475663E-4,4.1391305E-3,-9.170379E-3,-5.6993756E-3,-1.0680202E-2,2.7282403E-3,-5.864803E-3],"categories":[],"categories_nodes":[],"categories_segments":[],"categories_sizes":[],"default_left":[0,0,0,0,0,0,0,0,0,0,0,0,0,0,0],"id":64,"left_children":[1,3,5,7,9,11,13,-1,-1,-1,-1,-1,-1,-1,-1],"loss_changes":[1.6977795E2,7.006788E1,8.038125E1,2.6071991E1,2.235977E1,1.4619202E1,4.376905E1,0E0,0E0,0E0,0E0,0E0,0E0,0E0,0E0],"parents":[2147483647,0,0,1,1,2,2,3,3,4,4,5,5,6,6],"right_children":[2,4,6,8,10,12,14,-1,-1,-1,-1,-1,-1,-1,-1],"split_conditions":[1.1E1,1E0,1E0,1E0,2.44E1,1E0,5.6E1,1.0215704E-2,2.475663E-4,4.1391305E-3,-9.170379E-3,-5.6993756E-3,-1.0680202E-2,2.7282403E-3,-5.864803E-3],"split_indices":[1,13,12,15,3,27,1,0,0,0,0,0,0,0,0],"split_type":[0,0,0,0,0,0,0,0,0,0,0,0,0,0,0],"sum_hessian":[7.9649146E2,2.6150024E2,5.349912E2,2.0966547E2,5.183477E1,2.571586E2,2.778326E2,1.7888663E2,3.0778835E1,1.9602873E1,3.2231895E1,1.5877731E2,9.838129E1,1.9359161E2,8.4241E1],"tree_param":{"num_deleted":"0","num_feature":"35","num_nodes":"15","size_leaf_vector":"1"}},{"base_weights":[-4.5885652E-2,6.008715E-1,-3.611694E-1,8.376028E-1,-3.8008836E-1,-7.6843894E-1,8.608625E-3,9.608188E-3,1.211854E-3,3.9852676E-3,-8.476981E-3,-5.8375546E-3,-1.0563782E-2,2.5511063E-3,-5.1382217E-3],"categories":[],"categories_nodes":[],"categories_segments":[],"categories_sizes":[],"default_left":[0,0,0,0,0,0,0,0,0,0,0,0,0,0,0],"id":65,"left_children":[1,3,5,7,9,11,13,-1,-1,-1,-1,-1,-1,-1,-1],"loss_changes":[1.6439507E2,6.1681076E1,8.1616714E1,1.8701935E1,1.9291763E1,1.3097244E1,3.6835125E1,0E0,0E0,0E0,0E0,0E0,0E0,0E0,0E0],"parents":[2147483647,0,0,1,1,2,2,3,3,4,4,5,5,6,6],"right_children":[2,4,6,8,10,12,14,-1,-1,-1,-1,-1,-1,-1,-1],"split_conditions":[1.1E1,1E0,1E0,1E0,2.44E1,1E0,5.5E1,9.608188E-3,1.211854E-3,3.9852676E-3,-8.476981E-3,-5.8375546E-3,-1.0563782E-2,2.5511063E-3,-5.1382217E-3],"split_indices":[1,13,12,15,3,27,1,0,0,0,0,0,0,0,0],"split_type":[0,0,0,0,0,0,0,0,0,0,0,0,0,0,0],"sum_hessian":[8.041416E2,2.6323953E2,5.409021E2,2.1218088E2,5.105866E1,2.5688907E2,2.84013E2,1.8075229E2,3.1428587E1,1.9213715E1,3.1844944E1,1.5835071E2,9.853837E1,1.9331268E2,9.070032E1],"tree_param":{"num_deleted":"0","num_feature":"35","num_nodes":"15","size_leaf_vector":"1"}},{"base_weights":[-2.8766181E-2,1.903436E-1,-1.0137242E0,4.3771666E-1,-6.1310995E-1,-1.06850965E-2,-7.1127045E-1,3.13438E-4,7.09408E-3,-9.529372E-3,-2.4881721E-3,-2.5182157E-3,-1.1440115E-2],"categories":[],"categories_nodes":[],"categories_segments":[],"categories_sizes":[],"default_left":[0,0,0,0,0,0,0,0,0,0,0,0,0],"id":66,"left_children":[1,3,5,7,9,-1,11,-1,-1,-1,-1,-1,-1],"loss_changes":[1.7412303E2,1.3146704E2,1.67276E0,5.576673E1,1.9051857E1,0E0,4.783161E0,0E0,0E0,0E0,0E0,0E0,0E0],"parents":[2147483647,0,0,1,1,2,2,3,3,4,4,6,6],"right_children":[2,4,6,8,10,-1,12,-1,-1,-1,-1,-1,-1],"split_conditions":[1E0,1E0,1.0533047E2,1E0,1E0,-1.06850965E-2,7.76725E3,3.13438E-4,7.09408E-3,-9.529372E-3,-2.4881721E-3,-2.5182157E-3,-1.1440115E-2],"split_indices":[27,26,4,12,25,0,3,0,0,0,0,0,0],"split_type":[0,0,0,0,0,0,0,0,0,0,0,0,0],"sum_hessian":[8.049261E2,6.591099E2,1.4581618E2,5.0429816E2,1.5481175E2,1.2130975E2,2.450642E1,2.0251251E2,3.0178564E2,7.925943E1,7.5552315E1,1.2653691E1,1.1852728E1],"tree_param":{"num_deleted":"0","num_feature":"35","num_nodes":"13","size_leaf_vector":"1"}},{"base_weights":[-4.9566716E-2,4.0361392E-1,-4.8104492E-1,6.2971276E-1,-5.397523E-1,-8.653151E-1,-1.3271543E-1,8.2185934E-4,8.662497E-3,4.006979E-3,-8.496234E-3,-9.23542E-3,-2.7902531E-3,1.2402057E-3,-5.9179068E-3],"categories":[],"categories_nodes":[],"categories_segments":[],"categories_sizes":[],"default_left":[0,0,0,0,0,0,0,0,0,0,0,0,0,0,0],"id":67,"left_children":[1,3,5,7,9,11,13,-1,-1,-1,-1,-1,-1,-1,-1],"loss_changes":[1.573348E2,8.40585E1,5.5049904E1,4.0993965E1,2.2611567E1,6.4256287E0,2.56912E1,0E0,0E0,0E0,0E0,0E0,0E0,0E0,0E0],"parents":[2147483647,0,0,1,1,2,2,3,3,4,4,5,5,6,6],"right_children":[2,4,6,8,10,12,14,-1,-1,-1,-1,-1,-1,-1,-1],"split_conditions":[2.3E1,1E0,1E0,1E0,2.44E1,1E0,5.7E1,8.2185934E-4,8.662497E-3,4.006979E-3,-8.496234E-3,-9.23542E-3,-2.7902531E-3,1.2402057E-3,-5.9179068E-3],"split_indices":[1,13,12,28,3,0,1,0,0,0,0,0,0,0,0],"split_type":[0,0,0,0,0,0,0,0,0,0,0,0,0,0,0],"sum_hessian":[8.02634E2,3.9150336E2,4.1113058E2,3.1608017E2,7.54232E1,1.9477475E2,2.1635582E2,9.57618E1,2.2031836E2,1.8619732E1,5.680347E1,1.7665515E2,1.811961E1,1.3922478E2,7.713106E1],"tree_param":{"num_deleted":"0","num_feature":"35","num_nodes":"15","size_leaf_vector":"1"}},{"base_weights":[-3.5966296E-2,1.6898696E-1,-9.8285663E-1,3.9762262E-1,-5.856673E-1,-1.052958E-2,-5.9488803E-1,5.101726E-4,6.405276E-3,-9.14362E-3,-2.180606E-3,-3.409487E-4,-1.1346934E-2],"categories":[],"categories_nodes":[],"categories_segments":[],"categories_sizes":[],"default_left":[0,0,0,0,0,0,0,0,0,0,0,0,0],"id":68,"left_children":[1,3,5,7,9,-1,11,-1,-1,-1,-1,-1,-1],"loss_changes":[1.5530469E2,1.137672E2,3.24617E0,4.2535507E1,1.8336777E1,0E0,7.253601E0,0E0,0E0,0E0,0E0,0E0,0E0],"parents":[2147483647,0,0,1,1,2,2,3,3,4,4,6,6],"right_children":[2,4,6,8,10,-1,12,-1,-1,-1,-1,-1,-1],"split_conditions":[1E0,1E0,1.0533047E2,1E0,1E0,-1.052958E-2,7.76725E3,5.101726E-4,6.405276E-3,-9.14362E-3,-2.180606E-3,-3.409487E-4,-1.1346934E-2],"split_indices":[27,26,4,12,25,0,3,0,0,0,0,0,0],"split_type":[0,0,0,0,0,0,0,0,0,0,0,0,0],"sum_hessian":[7.9840234E2,6.5701404E2,1.4138835E2,5.0460748E2,1.5240652E2,1.1829906E2,2.3089285E1,2.0841974E2,2.9618774E2,7.9676575E1,7.272995E1,1.1845937E1,1.1243348E1],"tree_param":{"num_deleted":"0","num_feature":"35","num_nodes":"13","size_leaf_vector":"1"}},{"base_weights":[-2.8179994E-2,1.8676324E-1,-1.027078E0,4.1456786E-1,-5.8951247E-1,-1.1035696E-2,-6.8610764E-1,4.4284415E-4,6.656916E-3,-9.342554E-3,-2.1770883E-3,-3.0582263E-3,-1.1356147E-2],"categories":[],"categories_nodes":[],"categories_segments":[],"categories_sizes":[],"default_left":[0,0,0,0,0,0,0,0,0,0,0,0,0],"id":69,"left_children":[1,3,5,7,9,-1,11,-1,-1,-1,-1,-1,-1],"loss_changes":[1.7023102E2,1.1564426E2,2.9044647E0,4.6938446E1,1.8826633E1,0E0,4.501869E0,0E0,0E0,0E0,0E0,0E0,0E0],"parents":[2147483647,0,0,1,1,2,2,3,3,4,4,6,6],"right_children":[2,4,6,8,10,-1,12,-1,-1,-1,-1,-1,-1],"split_conditions":[1E0,1E0,1.0325E2,1E0,1E0,-1.1035696E-2,7.76725E3,4.4284415E-4,6.656916E-3,-9.342554E-3,-2.1770883E-3,-3.0582263E-3,-1.1356147E-2],"split_indices":[27,26,2,12,25,0,3,0,0,0,0,0,0],"split_type":[0,0,0,0,0,0,0,0,0,0,0,0,0],"sum_hessian":[7.909615E2,6.515696E2,1.3939194E2,5.0410242E2,1.4746713E2,1.12024414E2,2.7367517E1,2.041938E2,2.9990863E2,7.573319E1,7.173393E1,1.5735536E1,1.1631982E1],"tree_param":{"num_deleted":"0","num_feature":"35","num_nodes":"13","size_leaf_vector":"1"}},{"base_weights":[-5.4899264E-2,1.4304891E-1,-9.608237E-1,3.6066285E-1,-5.876141E-1,-1.0346828E0,-6.351525E-1,4.6807303E-4,6.7006135E-3,-9.306718E-3,-2.3047626E-3,-1.0565694E-2,-7.049597E-3,-2.3406232E-3,-1.1343314E-2],"categories":[],"categories_nodes":[],"categories_segments":[],"categories_sizes":[],"default_left":[0,0,0,0,0,0,0,0,0,0,0,0,0,0,0],"id":70,"left_children":[1,3,5,7,9,11,13,-1,-1,-1,-1,-1,-1,-1,-1],"loss_changes":[1.4355911E2,1.0471371E2,2.7956696E0,4.9204422E1,1.8310928E1,8.810425E-2,5.5661106E0,0E0,0E0,0E0,0E0,0E0,0E0,0E0,0E0],"parents":[2147483647,0,0,1,1,2,2,3,3,4,4,5,5,6,6],"right_children":[2,4,6,8,10,12,14,-1,-1,-1,-1,-1,-1,-1,-1],"split_conditions":[1E0,1E0,1.0325E2,1E0,1E0,1E0,7.76725E3,4.6807303E-4,6.7006135E-3,-9.306718E-3,-2.3047626E-3,-1.0565694E-2,-7.049597E-3,-2.3406232E-3,-1.1343314E-2],"split_indices":[27,26,2,30,25,30,3,0,0,0,0,0,0,0,0],"split_type":[0,0,0,0,0,0,0,0,0,0,0,0,0,0,0],"sum_hessian":[7.987814E2,6.562337E2,1.4254764E2,5.0602908E2,1.5020464E2,1.14421005E2,2.8126642E1,2.517767E2,2.5425238E2,7.579345E1,7.441119E1,1.05231415E2,9.1895895E0,1.6410059E1,1.1716585E1],"tree_param":{"num_deleted":"0","num_feature":"35","num_nodes":"15","size_leaf_vector":"1"}},{"base_weights":[-4.0149815E-2,1.6394061E-1,-9.596931E-1,3.8175347E-1,-5.8854467E-1,-1.0494624E0,-5.834423E-1,7.820303E-4,6.731058E-3,-8.880382E-3,-2.791825E-3,-1.0718024E-2,-7.340505E-3,-1.8598578E-3,-1.1282428E-2],"categories":[],"categories_nodes":[],"categories_segments":[],"categories_sizes":[],"default_left":[0,0,0,0,0,0,0,0,0,0,0,0,0,0,0],"id":71,"left_children":[1,3,5,7,9,11,13,-1,-1,-1,-1,-1,-1,-1,-1],"loss_changes":[1.48581E2,1.0644561E2,4.2445374E0,4.4450912E1,1.3267654E1,2.2491455E-2,6.275672E0,0E0,0E0,0E0,0E0,0E0,0E0,0E0,0E0],"parents":[2147483647,0,0,1,1,2,2,3,3,4,4,5,5,6,6],"right_children":[2,4,6,8,10,12,14,-1,-1,-1,-1,-1,-1,-1,-1],"split_conditions":[1E0,1E0,1.0325E2,1E0,1E0,1E0,7.76725E3,7.820303E-4,6.731058E-3,-8.880382E-3,-2.791825E-3,-1.0718024E-2,-7.340505E-3,-1.8598578E-3,-1.1282428E-2],"split_indices":[27,26,2,30,25,30,3,0,0,0,0,0,0,0,0],"split_type":[0,0,0,0,0,0,0,0,0,0,0,0,0,0,0],"sum_hessian":[7.89876E2,6.470799E2,1.4279611E2,5.0220523E2,1.4487465E2,1.1384473E2,2.8951385E1,2.4657512E2,2.556301E2,7.266098E1,7.221366E1,1.0407514E2,9.769581E0,1.751488E1,1.1436507E1],"tree_param":{"num_deleted":"0","num_feature":"35","num_nodes":"15","size_leaf_vector":"1"}},{"base_weights":[-5.881821E-2,5.334533E-1,-3.6070576E-1,7.4147654E-1,-3.3763131E-1,-7.30118E-1,-2.3188556E-2,8.827933E-3,-5.011002E-4,3.7816234E-3,-8.030278E-3,-5.633534E-3,-1.0047059E-2,1.9278683E-3,-4.9957996E-3],"categories":[],"categories_nodes":[],"categories_segments":[],"categories_sizes":[],"default_left":[0,0,0,0,0,0,0,0,0,0,0,0,0,0,0],"id":72,"left_children":[1,3,5,7,9,11,13,-1,-1,-1,-1,-1,-1,-1,-1],"loss_changes":[1.4338734E2,4.9319855E1,6.619908E1,2.453196E1,1.7922485E1,1.1043259E1,2.8756067E1,0E0,0E0,0E0,0E0,0E0,0E0,0E0,0E0],"parents":[2147483647,0,0,1,1,2,2,3,3,4,4,5,5,6,6],"right_children":[2,4,6,8,10,12,14,-1,-1,-1,-1,-1,-1,-1,-1],"split_conditions":[1.1E1,1E0,1E0,1E0,2.44E1,1E0,5.5E1,8.827933E-3,-5.011002E-4,3.7816234E-3,-8.030278E-3,-5.633534E-3,-1.0047059E-2,1.9278683E-3,-4.9957996E-3],"split_indices":[1,13,12,15,3,27,1,0,0,0,0,0,0,0,0],"split_type":[0,0,0,0,0,0,0,0,0,0,0,0,0,0,0],"sum_hessian":[7.9986926E2,2.6979428E2,5.3007495E2,2.1790524E2,5.188904E1,2.5252425E2,2.775507E2,1.8479906E2,3.3106197E1,2.0518467E1,3.1370573E1,1.5900682E2,9.351744E1,1.9138176E2,8.6168945E1],"tree_param":{"num_deleted":"0","num_feature":"35","num_nodes":"15","size_leaf_vector":"1"}},{"base_weights":[-5.2951347E-2,1.506839E-1,-9.862328E-1,3.6418703E-1,-5.9261596E-1,-1.039438E0,-6.45885E-1,-3.290399E-4,6.26177E-3,-9.336778E-3,-2.1688761E-3,-1.0666486E-2,-6.9786613E-3,5.354486E-4,-1.1460479E-2],"categories":[],"categories_nodes":[],"categories_segments":[],"categories_sizes":[],"default_left":[0,0,0,0,0,0,0,0,0,0,0,0,0,0,0],"id":73,"left_children":[1,3,5,7,9,11,13,-1,-1,-1,-1,-1,-1,-1,-1],"loss_changes":[1.495927E2,1.0279252E2,1.8814697E0,5.232425E1,1.8329136E1,3.735199E-1,7.6526546E0,0E0,0E0,0E0,0E0,0E0,0E0,0E0,0E0],"parents":[2147483647,0,0,1,1,2,2,3,3,4,4,5,5,6,6],"right_children":[2,4,6,8,10,12,14,-1,-1,-1,-1,-1,-1,-1,-1],"split_conditions":[1E0,1E0,1.059E2,1E0,1E0,1E0,1.1005E2,-3.290399E-4,6.26177E-3,-9.336778E-3,-2.1688761E-3,-1.0666486E-2,-6.9786613E-3,5.354486E-4,-1.1460479E-2],"split_indices":[27,26,2,12,25,30,2,0,0,0,0,0,0,0,0],"split_type":[0,0,0,0,0,0,0,0,0,0,0,0,0,0,0],"sum_hessian":[7.8534503E2,6.4536884E2,1.3997624E2,5.01756E2,1.4361281E2,1.1927624E2,2.0700005E1,1.9979962E2,3.019564E2,7.450081E1,6.9112E1,1.0850929E2,1.0766942E1,9.003051E0,1.1696954E1],"tree_param":{"num_deleted":"0","num_feature":"35","num_nodes":"15","size_leaf_vector":"1"}},{"base_weights":[-5.032629E-2,1.3667274E-1,-9.550657E-1,3.513828E-1,-6.118249E-1,-1.0178591E0,-6.7433125E-1,-2.3337101E-4,6.1783325E-3,-9.202914E-3,-2.7953177E-3,-1.0417021E-2,-6.471787E-3,-1.3009978E-3,-1.001305E-2],"categories":[],"categories_nodes":[],"categories_segments":[],"categories_sizes":[],"default_left":[0,0,0,0,0,0,0,0,0,0,0,0,0,0,0],"id":74,"left_children":[1,3,5,7,9,11,13,-1,-1,-1,-1,-1,-1,-1,-1],"loss_changes":[1.3490166E2,1.06447365E2,1.7211075E0,5.1364902E1,1.4883587E1,2.948761E-1,4.839219E0,0E0,0E0,0E0,0E0,0E0,0E0,0E0,0E0],"parents":[2147483647,0,0,1,1,2,2,3,3,4,4,5,5,6,6],"right_children":[2,4,6,8,10,12,14,-1,-1,-1,-1,-1,-1,-1,-1],"split_conditions":[1E0,1E0,1.0325E2,1E0,1E0,1E0,1.0925E2,-2.3337101E-4,6.1783325E-3,-9.202914E-3,-2.7953177E-3,-1.0417021E-2,-6.471787E-3,-1.3009978E-3,-1.001305E-2],"split_indices":[27,26,2,12,25,30,2,0,0,0,0,0,0,0,0],"split_type":[0,0,0,0,0,0,0,0,0,0,0,0,0,0,0],"sum_hessian":[7.955885E2,6.600192E2,1.3556929E2,5.133056E2,1.4671356E2,1.08642876E2,2.6926413E1,2.1369305E2,2.9961258E2,7.516689E1,7.154668E1,1.0037619E2,8.266681E0,1.0630451E1,1.6295961E1],"tree_param":{"num_deleted":"0","num_feature":"35","num_nodes":"15","size_leaf_vector":"1"}},{"base_weights":[-5.4152474E-2,1.3826944E-1,-9.81352E-1,3.594369E-1,-6.149296E-1,-1.0513711E-2,-5.8364284E-1,-3.7129014E-4,6.218879E-3,-9.033498E-3,-3.1562534E-3,-5.2533695E-4,-1.1122751E-2],"categories":[],"categories_nodes":[],"categories_segments":[],"categories_sizes":[],"default_left":[0,0,0,0,0,0,0,0,0,0,0,0,0],"id":75,"left_children":[1,3,5,7,9,-1,11,-1,-1,-1,-1,-1,-1],"loss_changes":[1.4181287E2,1.0991519E2,3.190277E0,5.3067757E1,1.2649712E1,0E0,6.3139534E0,0E0,0E0,0E0,0E0,0E0,0E0],"parents":[2147483647,0,0,1,1,2,2,3,3,4,4,6,6],"right_children":[2,4,6,8,10,-1,12,-1,-1,-1,-1,-1,-1],"split_conditions":[1E0,1E0,1.0533047E2,1E0,1E0,-1.0513711E-2,7.76725E3,-3.7129014E-4,6.218879E-3,-9.033498E-3,-3.1562534E-3,-5.2533695E-4,-1.1122751E-2],"split_indices":[27,26,4,12,25,0,3,0,0,0,0,0,0],"split_type":[0,0,0,0,0,0,0,0,0,0,0,0,0],"sum_hessian":[7.9309436E2,6.574951E2,1.3559923E2,5.0865714E2,1.4883801E2,1.13902435E2,2.16968E1,2.0291269E2,3.0574445E2,7.4769394E1,7.406861E1,1.1371448E1,1.0325353E1],"tree_param":{"num_deleted":"0","num_feature":"35","num_nodes":"13","size_leaf_vector":"1"}},{"base_weights":[-5.5403385E-2,1.3492866E-1,-9.771973E-1,3.289062E-1,-5.519887E-1,-1.0393841E-2,-6.161669E-1,-4.4891785E-4,5.9270505E-3,-8.722943E-3,-2.25894E-3,-1.1219224E-3,-1.1088735E-2],"categories":[],"categories_nodes":[],"categories_segments":[],"categories_sizes":[],"default_left":[0,0,0,0,0,0,0,0,0,0,0,0,0],"id":76,"left_children":[1,3,5,7,9,-1,11,-1,-1,-1,-1,-1,-1],"loss_changes":[1.3794836E2,8.7053E1,2.380539E0,5.0219975E1,1.4837307E1,0E0,5.3949223E0,0E0,0E0,0E0,0E0,0E0,0E0],"parents":[2147483647,0,0,1,1,2,2,3,3,4,4,6,6],"right_children":[2,4,6,8,10,-1,12,-1,-1,-1,-1,-1,-1],"split_conditions":[1E0,1E0,1.0533047E2,1E0,1E0,-1.0393841E-2,7.76725E3,-4.4891785E-4,5.9270505E-3,-8.722943E-3,-2.25894E-3,-1.1219224E-3,-1.1088735E-2],"split_indices":[27,26,4,12,25,0,3,0,0,0,0,0,0],"split_type":[0,0,0,0,0,0,0,0,0,0,0,0,0],"sum_hessian":[7.8451685E2,6.509602E2,1.3355666E2,5.0802185E2,1.4293834E2,1.1232924E2,2.1227425E1,2.1053194E2,2.9748993E2,7.126426E1,7.167407E1,1.1100632E1,1.0126792E1],"tree_param":{"num_deleted":"0","num_feature":"35","num_nodes":"13","size_leaf_vector":"1"}},{"base_weights":[-3.704815E-2,1.4643534E-1,-9.617686E-1,3.6110988E-1,-5.966899E-1,-1.0507883E0,-4.781872E-1,-4.578064E-4,6.3502197E-3,-9.12364E-3,-2.6389032E-3,-1.0761731E-2,-6.803448E-3,1.0100193E-3,-1.1025829E-2],"categories":[],"categories_nodes":[],"categories_segments":[],"categories_sizes":[],"default_left":[0,0,0,0,0,0,0,0,0,0,0,0,0,0,0],"id":77,"left_children":[1,3,5,7,9,11,13,-1,-1,-1,-1,-1,-1,-1,-1],"loss_changes":[1.3406473E2,1.0542518E2,5.12899E0,5.7126663E1,1.5327755E1,2.988968E-1,8.129992E0,0E0,0E0,0E0,0E0,0E0,0E0,0E0,0E0],"parents":[2147483647,0,0,1,1,2,2,3,3,4,4,5,5,6,6],"right_children":[2,4,6,8,10,12,14,-1,-1,-1,-1,-1,-1,-1,-1],"split_conditions":[1E0,1E0,1.0533047E2,1E0,1E0,1E0,7.76725E3,-4.578064E-4,6.3502197E-3,-9.12364E-3,-2.6389032E-3,-1.0761731E-2,-6.803448E-3,1.0100193E-3,-1.1025829E-2],"split_indices":[27,26,4,12,25,30,3,0,0,0,0,0,0,0,0],"split_type":[0,0,0,0,0,0,0,0,0,0,0,0,0,0,0],"sum_hessian":[7.883155E2,6.584977E2,1.2981778E2,5.1130545E2,1.4719223E2,1.0864503E2,2.1172762E1,2.0605222E2,3.0525323E2,7.464596E1,7.254627E1,9.98946E1,8.750427E0,1.1418867E1,9.753895E0],"tree_param":{"num_deleted":"0","num_feature":"35","num_nodes":"15","size_leaf_vector":"1"}},{"base_weights":[-4.972645E-2,4.4727588E-1,-4.0752408E-1,-1.1221631E-2,9.535783E-1,-7.707622E-1,-8.561017E-2,4.1650217E-3,-3.9530788E-3,6.9320356E-3,1.2318615E-2,-5.9812046E-3,-1.0137762E-2,-3.7096825E-3,2.7616005E-3],"categories":[],"categories_nodes":[],"categories_segments":[],"categories_sizes":[],"default_left":[0,0,0,0,0,0,0,0,0,0,0,0,0,0,0],"id":78,"left_children":[1,3,5,7,9,11,13,-1,-1,-1,-1,-1,-1,-1,-1],"loss_changes":[1.3945192E2,7.622066E1,5.3241043E1,2.8629835E1,1.04513855E1,8.374741E0,2.5169168E1,0E0,0E0,0E0,0E0,0E0,0E0,0E0,0E0],"parents":[2147483647,0,0,1,1,2,2,3,3,4,4,5,5,6,6],"right_children":[2,4,6,8,10,12,14,-1,-1,-1,-1,-1,-1,-1,-1],"split_conditions":[1.6E1,1E0,1E0,4E0,8.185E1,1E0,1E0,4.1650217E-3,-3.9530788E-3,6.9320356E-3,1.2318615E-2,-5.9812046E-3,-1.0137762E-2,-3.7096825E-3,2.7616005E-3],"split_indices":[1,12,12,1,4,27,30,0,0,0,0,0,0,0,0],"split_type":[0,0,0,0,0,0,0,0,0,0,0,0,0,0,0],"sum_hessian":[7.821782E2,3.2729535E2,4.548829E2,1.722694E2,1.5502594E2,2.1306845E2,2.4181445E2,8.146474E1,9.080466E1,8.189354E1,7.31324E1,1.2659455E2,8.64739E1,1.351696E2,1.0664486E2],"tree_param":{"num_deleted":"0","num_feature":"35","num_nodes":"15","size_leaf_vector":"1"}},{"base_weights":[-4.973929E-2,1.3638031E-1,-9.644263E-1,3.28836E-1,-5.308891E-1,-1.0374484E0,-6.198054E-1,-8.3356694E-4,5.20608E-3,-8.465758E-3,-2.1191882E-3,-1.0616562E-2,-7.1071633E-3,-2.2101756E-3,-1.1059477E-2],"categories":[],"categories_nodes":[],"categories_segments":[],"categories_sizes":[],"default_left":[0,0,0,0,0,0,0,0,0,0,0,0,0,0,0],"id":79,"left_children":[1,3,5,7,9,11,13,-1,-1,-1,-1,-1,-1,-1,-1],"loss_changes":[1.3434154E2,8.44099E1,2.714363E0,4.0335102E1,1.4644737E1,1.044693E-1,4.759447E0,0E0,0E0,0E0,0E0,0E0,0E0,0E0,0E0],"parents":[2147483647,0,0,1,1,2,2,3,3,4,4,5,5,6,6],"right_children":[2,4,6,8,10,12,14,-1,-1,-1,-1,-1,-1,-1,-1],"split_conditions":[1E0,1E0,1.0325E2,1E0,1E0,1E0,7.76725E3,-8.3356694E-4,5.20608E-3,-8.465758E-3,-2.1191882E-3,-1.0616562E-2,-7.1071633E-3,-2.2101756E-3,-1.1059477E-2],"split_indices":[27,26,2,28,25,30,3,0,0,0,0,0,0,0,0],"split_type":[0,0,0,0,0,0,0,0,0,0,0,0,0,0,0],"sum_hessian":[7.8735223E2,6.549372E2,1.3241507E2,5.0871838E2,1.4621878E2,1.0760426E2,2.4810806E1,1.6170871E2,3.470097E2,7.265633E1,7.356245E1,9.808756E1,9.5167E0,1.4429096E1,1.038171E1],"tree_param":{"num_deleted":"0","num_feature":"35","num_nodes":"15","size_leaf_vector":"1"}},{"base_weights":[-6.769591E-2,1.1795411E-1,-9.6992236E-1,3.1885117E-1,-6.0854644E-1,-1.026756E-2,-6.8945396E-1,4.265703E-3,-4.824482E-3,-8.980462E-3,-3.1283433E-3,2.232085E-3,-8.63915E-3],"categories":[],"categories_nodes":[],"categories_segments":[],"categories_sizes":[],"default_left":[0,0,0,0,0,0,0,0,0,0,0,0,0],"id":80,"left_children":[1,3,5,7,9,-1,11,-1,-1,-1,-1,-1,-1],"loss_changes":[1.310626E2,9.495541E1,1.4204788E0,4.416394E1,1.1789051E1,0E0,4.259739E0,0E0,0E0,0E0,0E0,0E0,0E0],"parents":[2147483647,0,0,1,1,2,2,3,3,4,4,6,6],"right_children":[2,4,6,8,10,-1,12,-1,-1,-1,-1,-1,-1],"split_conditions":[1E0,1E0,1.0375E2,1E0,1E0,-1.026756E-2,1E0,4.265703E-3,-4.824482E-3,-8.980462E-3,-3.1283433E-3,2.232085E-3,-8.63915E-3],"split_indices":[27,26,2,13,25,0,17,0,0,0,0,0,0],"split_type":[0,0,0,0,0,0,0,0,0,0,0,0,0],"sum_hessian":[7.80788E2,6.482647E2,1.3252336E2,5.0827423E2,1.3999046E2,1.0798134E2,2.454202E1,4.4845572E2,5.981851E1,6.970901E1,7.0281456E1,3.893652E0,2.0648369E1],"tree_param":{"num_deleted":"0","num_feature":"35","num_nodes":"13","size_leaf_vector":"1"}},{"base_weights":[-5.6847718E-2,4.2611453E-1,-4.1742927E-1,6.2814605E-1,-4.1346878E-1,-7.9927653E-1,-8.8707395E-2,7.6900967E-3,-1.0980718E-3,3.982197E-3,-7.7183875E-3,-8.586629E-3,-1.7113815E-3,-3.6432005E-3,2.389937E-3],"categories":[],"categories_nodes":[],"categories_segments":[],"categories_sizes":[],"default_left":[0,0,0,0,0,0,0,0,0,0,0,0,0,0,0],"id":81,"left_children":[1,3,5,7,9,11,13,-1,-1,-1,-1,-1,-1,-1,-1],"loss_changes":[1.3623051E2,5.6989624E1,5.6137886E1,2.8148659E1,1.9352356E1,7.5760956E0,2.1923E1,0E0,0E0,0E0,0E0,0E0,0E0,0E0,0E0],"parents":[2147483647,0,0,1,1,2,2,3,3,4,4,5,5,6,6],"right_children":[2,4,6,8,10,12,14,-1,-1,-1,-1,-1,-1,-1,-1],"split_conditions":[1.7E1,1E0,1E0,1E0,2.44E1,1E0,1E0,7.6900967E-3,-1.0980718E-3,3.982197E-3,-7.7183875E-3,-8.586629E-3,-1.7113815E-3,-3.6432005E-3,2.389937E-3],"split_indices":[1,13,12,15,3,0,30,0,0,0,0,0,0,0,0],"split_type":[0,0,0,0,0,0,0,0,0,0,0,0,0,0,0],"sum_hessian":[7.802504E2,3.3344846E2,4.4680197E2,2.6897583E2,6.447264E1,2.0603629E2,2.4076569E2,2.2582692E2,4.31489E1,1.971287E1,4.475977E1,1.8790417E2,1.8132118E1,1.3071567E2,1.1005002E2],"tree_param":{"num_deleted":"0",